<?xml version="1.0"?>
<opencv_storage>
<cascade>
  <stageType>BOOST</stageType>
  <featureType>LBP</featureType>
  <height>24</height>
  <width>24</width>
  <stageParams>
    <boostType>GAB</boostType>
    <minHitRate>9.9500000476837158e-01</minHitRate>
    <maxFalseAlarm>5.0000000000000000e-01</maxFalseAlarm>
    <weightTrimRate>9.4999999999999996e-01</weightTrimRate>
    <maxDepth>1</maxDepth>
    <maxWeakCount>100</maxWeakCount></stageParams>
  <featureParams>
    <maxCatCount>256</maxCatCount>
    <featSize>1</featSize></featureParams>
  <stageNum>20</stageNum>
  <stages>
    <!-- stage 0 -->
    <_>
      <maxWeakCount>3</maxWeakCount>
      <stageThreshold>-6.2341827154159546e-01</stageThreshold>
      <weakClassifiers>
        <_>
          <internalNodes>
            0 -1 118 -800004880 -637736210 -926905112 -660229 -69145608
            -3634450 -34502661 -53329</internalNodes>
          <leafValues>
            -6.9863015413284302e-01 8.4751123189926147e-01</leafValues></_>
        <_>
          <internalNodes>
            0 -1 99 -185286659 -38527193 -593122139 -1793782780
            740569005 -1646948609 82052783 -1510003537</internalNodes>
          <leafValues>
            -5.7232248783111572e-01 7.3765480518341064e-01</leafValues></_>
        <_>
          <internalNodes>
            0 -1 135 -335613953 -1951872342 607942364 188809075
            1610032847 -1684209685 1274664090 -982450181</internalNodes>
          <leafValues>
            -5.3533667325973511e-01 6.4753437042236328e-01</leafValues></_></weakClassifiers></_>
    <!-- stage 1 -->
    <_>
      <maxWeakCount>5</maxWeakCount>
      <stageThreshold>-9.3639707565307617e-01</stageThreshold>
      <weakClassifiers>
        <_>
          <internalNodes>
            0 -1 67 -791621384 -571745077 1910560255 -46400001
            -256664325 -587492157 -612369153 -544481845</internalNodes>
          <leafValues>
            -5.4399484395980835e-01 7.9748553037643433e-01</leafValues></_>
        <_>
          <internalNodes>
            0 -1 60 -2100257 -606273328 -2134634415 1360068769
            -1577014630 -132610888 -1577017189 -1275350853</internalNodes>
          <leafValues>
            -4.7211918234825134e-01 7.3085939884185791e-01</leafValues></_>
        <_>
          <internalNodes>
            0 -1 168 -527617 -537660815 -237776135 -149728924 4276321
            1615921153 1138903 1433887607</internalNodes>
          <leafValues>
            -7.5009202957153320e-01 4.7898790240287781e-01</leafValues></_>
        <_>
          <internalNodes>
            0 -1 89 -792625 -788473983 -205322517 1997919467 -773593093
            51423208 -876139382 1360119679</internalNodes>
          <leafValues>
            -6.1150723695755005e-01 4.5509928464889526e-01</leafValues></_>
        <_>
          <internalNodes>
            0 -1 62 -136970316 460325304 -1526692745 466683989
            -108344102 2049515996 -1973812530 749674719</internalNodes>
          <leafValues>
            -7.0574355125427246e-01 3.7470972537994385e-01</leafValues></_></weakClassifiers></_>
    <!-- stage 2 -->
    <_>
      <maxWeakCount>6</maxWeakCount>
      <stageThreshold>-1.3482154607772827e+00</stageThreshold>
      <weakClassifiers>
        <_>
          <internalNodes>
            0 -1 113 -262 -654407458 -25630472 -864900574 -7281936
            -42348886 -793982 -540022102</internalNodes>
          <leafValues>
            -5.6545579433441162e-01 7.6455116271972656e-01</leafValues></_>
        <_>
          <internalNodes>
            0 -1 82 -69862401 -78516979 -922157031 1293877261
            -1476351813 -1171004424 -1332731141 -1317068193</internalNodes>
          <leafValues>
            -4.9326872825622559e-01 6.7493242025375366e-01</leafValues></_>
        <_>
          <internalNodes>
            0 -1 153 -67115046 -3460305 1073746192 -709551640 -808852824
            -134179060 -800201912 -715787265</internalNodes>
          <leafValues>
            -5.6762528419494629e-01 5.5508363246917725e-01</leafValues></_>
        <_>
          <internalNodes>
            0 -1 1 -560730964 -138950267 -380150820 -6315177 -6296600
            2027985488 -140060513 1964506751</internalNodes>
          <leafValues>
            -5.5721211433410645e-01 5.2303880453109741e-01</leafValues></_>
        <_>
          <internalNodes>
            0 -1 77 -19006254 1418917240 -1617437185 530518365
            -566183756 5316626 -1138230370 258676893</internalNodes>
          <leafValues>
            -6.2028640508651733e-01 4.4367992877960205e-01</leafValues></_>
        <_>
          <internalNodes>
            0 -1 122 -12845142 268681728 1368645664 1363629606
            -534057053 1811586 -791436390 31455215</internalNodes>
          <leafValues>
            -7.7030867338180542e-01 3.3292394876480103e-01</leafValues></_></weakClassifiers></_>
    <!-- stage 3 -->
    <_>
      <maxWeakCount>8</maxWeakCount>
      <stageThreshold>-1.0192228555679321e+00</stageThreshold>
      <weakClassifiers>
        <_>
          <internalNodes>
            0 -1 66 -805461189 -8966381 -1346564161 -11075273
            -1905743617 -268849729 -1934774273 -285697</internalNodes>
          <leafValues>
            -3.1953558325767517e-01 8.4676456451416016e-01</leafValues></_>
        <_>
          <internalNodes>
            0 -1 72 -33554433 -249702424 1296949213 1431635217
            1289730799 -1912945479 326591 1158016511</internalNodes>
          <leafValues>
            -4.7072401642799377e-01 6.1537671089172363e-01</leafValues></_>
        <_>
          <internalNodes>
            0 -1 41 -548604417 1969029329 -1929117687 89980937 -7544898
            -72395561 -1425495542 -1346694725</internalNodes>
          <leafValues>
            -4.8293104767799377e-01 5.1290351152420044e-01</leafValues></_>
        <_>
          <internalNodes>
            0 -1 136 -3149909 -1060451670 -535203635 13492879 -700760693
            -1880149493 -237270577 1270874063</internalNodes>
          <leafValues>
            -6.0587126016616821e-01 3.9974582195281982e-01</leafValues></_>
        <_>
          <internalNodes>
            0 -1 164 -749349419 -48380586 1430606167 -11044158
            -782937899 1079468116 1364286975 -4202597</internalNodes>
          <leafValues>
            -4.4225206971168518e-01 4.9922689795494080e-01</leafValues></_>
        <_>
          <internalNodes>
            0 -1 6 -461116429 41386199 -235842597 -436764513 -497680393
            547692705 1079361904 -1057765641</internalNodes>
          <leafValues>
            -5.0098234415054321e-01 4.0743830800056458e-01</leafValues></_>
        <_>
          <internalNodes>
            0 -1 104 -2012372929 -550852074 225316219 2133307070
            -2038325313 -1380924924 -22239553 -633989497</internalNodes>
          <leafValues>
            -4.0068247914314270e-01 5.1179510354995728e-01</leafValues></_>
        <_>
          <internalNodes>
            0 -1 157 -666374992 -539763431 -840447015 -786696225
            -895813210 -1742675960 -2130798085 9434043</internalNodes>
          <leafValues>
            -5.7513225078582764e-01 3.4979942440986633e-01</leafValues></_></weakClassifiers></_>
    <!-- stage 4 -->
    <_>
      <maxWeakCount>8</maxWeakCount>
      <stageThreshold>-9.0191149711608887e-01</stageThreshold>
      <weakClassifiers>
        <_>
          <internalNodes>
            0 -1 46 -1325772552 -102805251 -134688257 2145342623
            -67961089 -1076167169 -345448513 -284426289</internalNodes>
          <leafValues>
            -4.3292286992073059e-01 7.3317551612854004e-01</leafValues></_>
        <_>
          <internalNodes>
            0 -1 83 -2228225 2010464063 -185751553 1066482563 -325210193
            -16957905 -305296689 -1143135237</internalNodes>
          <leafValues>
            -3.8973495364189148e-01 6.2448799610137939e-01</leafValues></_>
        <_>
          <internalNodes>
            0 -1 152 -68158518 -235154813 9118208 -1110213470 1258406400
            8523778 189524875 1541134751</internalNodes>
          <leafValues>
            -6.2402349710464478e-01 3.9905256032943726e-01</leafValues></_>
        <_>
          <internalNodes>
            0 -1 39 -19479338 -40263529 -578756408 -1253448561
            -725613394 -69664766 -2147467032 -346341345</internalNodes>
          <leafValues>
            -5.0622004270553589e-01 4.3542441725730896e-01</leafValues></_>
        <_>
          <internalNodes>
            0 -1 61 -1 -184746768 -2079518715 -47322100 -282872920
            -1877952600 1058422570 -8389361</internalNodes>
          <leafValues>
            -4.0748271346092224e-01 5.1111537218093872e-01</leafValues></_>
        <_>
          <internalNodes>
            0 -1 172 -113208848 -788418368 -1524778988 1359237136
            638241706 -1451224902 -1987400005 -1713429541</internalNodes>
          <leafValues>
            -4.4304150342941284e-01 4.6576794981956482e-01</leafValues></_>
        <_>
          <internalNodes>
            0 -1 92 -197526565 -1752450280 1564990745 1593944859
            1086824618 -911540038 1170408909 -1690597953</internalNodes>
          <leafValues>
            -3.6989802122116089e-01 5.4059350490570068e-01</leafValues></_>
        <_>
          <internalNodes>
            0 -1 114 -178979596 -36154892 -1529807907 -711134552
            -579309093 -1078070988 1264196798 1319046794</internalNodes>
          <leafValues>
            -5.6189721822738647e-01 3.4669762849807739e-01</leafValues></_></weakClassifiers></_>
    <!-- stage 5 -->
    <_>
      <maxWeakCount>8</maxWeakCount>
      <stageThreshold>-9.3149918317794800e-01</stageThreshold>
      <weakClassifiers>
        <_>
          <internalNodes>
            0 -1 2 -8388870 -24584 -268511236 -1 -16973826 -5189636
            -393217 -67108865</internalNodes>
          <leafValues>
            -2.3606398701667786e-01 8.1534671783447266e-01</leafValues></_>
        <_>
          <internalNodes>
            0 -1 47 -251592707 -585004289 -2129793731 -542123634
            -737871873 -1112244225 -843731205 -574635350</internalNodes>
          <leafValues>
            -3.9815914630889893e-01 6.0165053606033325e-01</leafValues></_>
        <_>
          <internalNodes>
            0 -1 130 -825234706 265277655 451144 1290783298 149921954
            160686258 44292832 -883953482</internalNodes>
          <leafValues>
            -5.4348057508468628e-01 4.3981155753135681e-01</leafValues></_>
        <_>
          <internalNodes>
            0 -1 90 -724239105 -773259589 -571408905 -788403295
            -267469684 -1321959773 -536871681 991946379</internalNodes>
          <leafValues>
            -4.2484939098358154e-01 4.9435108900070190e-01</leafValues></_>
        <_>
          <internalNodes>
            0 -1 170 -48505648 -103032391 -1232051968 286365312
            -1173112678 -1093723496 143708810 -1685073014</internalNodes>
          <leafValues>
            -4.8949822783470154e-01 3.6871498823165894e-01</leafValues></_>
        <_>
          <internalNodes>
            0 -1 156 -168301650 -69017554 18952960 319139631 -1974999410
            -770717689 -251464957 2001715975</internalNodes>
          <leafValues>
            -6.2034332752227783e-01 3.1769534945487976e-01</leafValues></_>
        <_>
          <internalNodes>
            0 -1 99 -169541633 -12206331 -538583051 -49959669 221097983
            -1621245955 2118430703 -553676805</internalNodes>
          <leafValues>
            -3.8771656155586243e-01 4.8834130167961121e-01</leafValues></_>
        <_>
          <internalNodes>
            0 -1 197 -660613821 69663146 272042498 1088678913 -918306816
            1073963078 828868400 1078444179</internalNodes>
          <leafValues>
            -5.4684031009674072e-01 3.4314519166946411e-01</leafValues></_></weakClassifiers></_>
    <!-- stage 6 -->
    <_>
      <maxWeakCount>10</maxWeakCount>
      <stageThreshold>-9.3159776926040649e-01</stageThreshold>
      <weakClassifiers>
        <_>
          <internalNodes>
            0 -1 86 -1879069377 -12869833 -1749176545 -1086902511
            -1999851779 -1342329029 -1900105729 -17993</internalNodes>
          <leafValues>
            -3.0437204241752625e-01 7.5670176744461060e-01</leafValues></_>
        <_>
          <internalNodes>
            0 -1 135 -16385 -1145541634 -353314849 -171900994 -4345957
            -65541 -138461777 -655377</internalNodes>
          <leafValues>
            -3.5061478614807129e-01 6.5912461280822754e-01</leafValues></_>
        <_>
          <internalNodes>
            0 -1 7 -2232592 -419983690 254248127 -1888491779 -67908624
            -219741983 -886576665 -806919433</internalNodes>
          <leafValues>
            -4.5777955651283264e-01 4.4128179550170898e-01</leafValues></_>
        <_>
          <internalNodes>
            0 -1 154 -375273281 1434439711 -17703553 -739823301
            -793715265 -1273203207 -34217985 -132514567</internalNodes>
          <leafValues>
            -3.8960200548171997e-01 4.5283430814743042e-01</leafValues></_>
        <_>
          <internalNodes>
            0 -1 35 -41877580 -114117505 -16495562 929179838 -285148740
            -1107759364 -127237894 968509502</internalNodes>
          <leafValues>
            -5.4537022113800049e-01 3.1386563181877136e-01</leafValues></_>
        <_>
          <internalNodes>
            0 -1 175 -540038379 -1210979519 -1610666049 -236986441
            -29556 -578037991 -1476097912 -187826609</internalNodes>
          <leafValues>
            -3.5037609934806824e-01 4.6545606851577759e-01</leafValues></_>
        <_>
          <internalNodes>
            0 -1 22 -826831065 -1985230038 636945407 -8405581 2091771247
            625338561 -558686273 1163228992</internalNodes>
          <leafValues>
            -4.4427368044853210e-01 3.6133009195327759e-01</leafValues></_>
        <_>
          <internalNodes>
            0 -1 51 -1031081536 701493964 -369606416 -536909576
            -1981285904 -54530348 -1026388792 -2013151040</internalNodes>
          <leafValues>
            -5.9715974330902100e-01 2.5863790512084961e-01</leafValues></_>
        <_>
          <internalNodes>
            0 -1 97 -280698913 1540744863 -1899627557 -976385827
            839447099 -581395585 940581003 -888676225</internalNodes>
          <leafValues>
            -3.6661565303802490e-01 4.4392392039299011e-01</leafValues></_>
        <_>
          <internalNodes>
            0 -1 13 -1678970905 -2030007390 -69749793 -1146577004
            -167328493 1730430517 279048310 -782911545</internalNodes>
          <leafValues>
            -3.9984583854675293e-01 3.7312158942222595e-01</leafValues></_></weakClassifiers></_>
    <!-- stage 7 -->
    <_>
      <maxWeakCount>10</maxWeakCount>
      <stageThreshold>-9.1165816783905029e-01</stageThreshold>
      <weakClassifiers>
        <_>
          <internalNodes>
            0 -1 119 572653571 -545575089 -1107357937 -39895281
            -1603096577 -118720513 -34669121 -262485</internalNodes>
          <leafValues>
            -3.7508556246757507e-01 6.7390590906143188e-01</leafValues></_>
        <_>
          <internalNodes>
            0 -1 89 -787457 -685637975 -17053969 -4849953 -8389633
            -786334849 -134271257 -143339521</internalNodes>
          <leafValues>
            -3.8199695944786072e-01 5.3779035806655884e-01</leafValues></_>
        <_>
          <internalNodes>
            0 -1 5 -143131145 -786439 -1937043857 -1547227603 -134938639
            -141429516 -811110401 -336114435</internalNodes>
          <leafValues>
            -3.7101098895072937e-01 4.9204319715499878e-01</leafValues></_>
        <_>
          <internalNodes>
            0 -1 168 -3935233 -943465744 397925355 -144464301 1080115431
            1969300496 6619391 1967613799</internalNodes>
          <leafValues>
            -6.3002657890319824e-01 2.7765369415283203e-01</leafValues></_>
        <_>
          <internalNodes>
            0 -1 176 -184549714 -10233618 568178446 -45106213 -106959190
            -796005752 196019210 994030346</internalNodes>
          <leafValues>
            -4.9011000990867615e-01 3.4511733055114746e-01</leafValues></_>
        <_>
          <internalNodes>
            0 -1 129 -579874065 -1568496984 1623259376 -334648776
            2109806336 805514318 5351249 -488115317</internalNodes>
          <leafValues>
            -3.8029325008392334e-01 4.5704829692840576e-01</leafValues></_>
        <_>
          <internalNodes>
            0 -1 42 2140921849 -3321731 -1565855446 -655527478
            -274007143 -1178010181 -1551222422 -1652436519</internalNodes>
          <leafValues>
            -3.5482612252235413e-01 4.5010915398597717e-01</leafValues></_>
        <_>
          <internalNodes>
            0 -1 8 1831075351 -2145259585 -268176781 1725393887
            -396886251 117676903 1449611524 1078450791</internalNodes>
          <leafValues>
            -4.4448003172874451e-01 3.4598624706268311e-01</leafValues></_>
        <_>
          <internalNodes>
            0 -1 198 -113772749 -490226125 1094456848 1980158882
            -998288124 1311837185 1079316480 -546322174</internalNodes>
          <leafValues>
            -3.4709769487380981e-01 4.4598224759101868e-01</leafValues></_>
        <_>
          <internalNodes>
            0 -1 88 -953286601 -142912953 -1927502273 -102949424
            -602223429 -266858572 -542771297 -115801701</internalNodes>
          <leafValues>
            -3.6367115378379822e-01 4.3002647161483765e-01</leafValues></_></weakClassifiers></_>
    <!-- stage 8 -->
    <_>
      <maxWeakCount>12</maxWeakCount>
      <stageThreshold>-1.4255572557449341e+00</stageThreshold>
      <weakClassifiers>
        <_>
          <internalNodes>
            0 -1 18 -84214018 -294993942 -84479746 -3170561 -458753
            -1048855 -2102082 -4194433</internalNodes>
          <leafValues>
            -3.1094112992286682e-01 6.5659934282302856e-01</leafValues></_>
        <_>
          <internalNodes>
            0 -1 165 -723200513 -779026435 -539631617 -169832962
            1298074847 -1129160925 -1368139793 -1417442625</internalNodes>
          <leafValues>
            -3.5728582739830017e-01 5.4352837800979614e-01</leafValues></_>
        <_>
          <internalNodes>
            0 -1 74 -134217761 872152056 1997797363 1929565066
            1173307624 -493188932 364659916 -71579171</internalNodes>
          <leafValues>
            -3.5097762942314148e-01 4.7436589002609253e-01</leafValues></_>
        <_>
          <internalNodes>
            0 -1 106 -744095824 407936232 923838399 503314267 1429264882
            272836400 1984550587 1061155727</internalNodes>
          <leafValues>
            -5.0612097978591919e-01 3.2086154818534851e-01</leafValues></_>
        <_>
          <internalNodes>
            0 -1 127 -78118915 -250893218 1982700748 -1354784004
            1483779372 254603001 -56903616 1061153774</internalNodes>
          <leafValues>
            -3.8791927695274353e-01 3.9345559477806091e-01</leafValues></_>
        <_>
          <internalNodes>
            0 -1 80 103755521 -289444025 1551312759 -552964 -307236870
            -915955930 -1628468225 -809567316</internalNodes>
          <leafValues>
            -3.6768221855163574e-01 3.9744639396667480e-01</leafValues></_>
        <_>
          <internalNodes>
            0 -1 81 -808058985 1549598941 2100739991 1441903099
            1712900624 -443261761 1754807059 -706760021</internalNodes>
          <leafValues>
            -3.4656685590744019e-01 4.1020235419273376e-01</leafValues></_>
        <_>
          <internalNodes>
            0 -1 134 -303038754 -2016507688 570864848 1087303856
            -1424507651 168960064 -1207437616 2119155187</internalNodes>
          <leafValues>
            -5.7984715700149536e-01 2.3850294947624207e-01</leafValues></_>
        <_>
          <internalNodes>
            0 -1 160 -207365992 -780042112 -1819454031 286382533
            -1430542813 -1415378885 413640842 -1725987949</internalNodes>
          <leafValues>
            -3.7340068817138672e-01 3.8524317741394043e-01</leafValues></_>
        <_>
          <internalNodes>
            0 -1 17 -466881713 1120112418 1865533431 -238714889
            -1251787145 539252092 -167807212 -1067997321</internalNodes>
          <leafValues>
            -3.4312203526496887e-01 4.1930267214775085e-01</leafValues></_>
        <_>
          <internalNodes>
            0 -1 194 -650119915 1700652353 501172061 -961562817
            -23649024 -782245669 1074742288 -844892897</internalNodes>
          <leafValues>
            -3.5710614919662476e-01 3.9070728421211243e-01</leafValues></_>
        <_>
          <internalNodes>
            0 -1 37 -893204550 -1061099968 1031853367 774381585
            -1068854279 1141637792 -752661003 -276612901</internalNodes>
          <leafValues>
            -4.2913773655891418e-01 3.4785345196723938e-01</leafValues></_></weakClassifiers></_>
    <!-- stage 9 -->
    <_>
      <maxWeakCount>12</maxWeakCount>
      <stageThreshold>-1.0568650960922241e+00</stageThreshold>
      <weakClassifiers>
        <_>
          <internalNodes>
            0 -1 103 -1342206049 -537444561 -574640225 -6439635
            -1926426641 -17975361 -843075585 -147463</internalNodes>
          <leafValues>
            -2.3621103167533875e-01 6.6878533363342285e-01</leafValues></_>
        <_>
          <internalNodes>
            0 -1 75 -90178861 -646450351 -553946093 -212631535 742321855
            13687285 -2136082177 -799554667</internalNodes>
          <leafValues>
            -3.8057437539100647e-01 4.5771956443786621e-01</leafValues></_>
        <_>
          <internalNodes>
            0 -1 1 2111803302 -549859 -1724383233 -134218297 -554192901
            -371140708 -18087937 1953890255</internalNodes>
          <leafValues>
            -4.3334454298019409e-01 3.6968824267387390e-01</leafValues></_>
        <_>
          <internalNodes>
            0 -1 44 -11209231 -21695437 -1146028107 991253026 -856117761
            -809521289 1224691450 -1925528555</internalNodes>
          <leafValues>
            -3.6144626140594482e-01 3.9505761861801147e-01</leafValues></_>
        <_>
          <internalNodes>
            0 -1 122 -2133 287559712 2010093336 296206371 -393500769
            2174982 -975198998 10485599</internalNodes>
          <leafValues>
            -6.5391910076141357e-01 2.1206340193748474e-01</leafValues></_>
        <_>
          <internalNodes>
            0 -1 117 -540046049 873202985 -1299771637 2097503749
            -841085564 -49802486 -228948596 -172057693</internalNodes>
          <leafValues>
            -3.7864550948143005e-01 3.3560132980346680e-01</leafValues></_>
        <_>
          <internalNodes>
            0 -1 128 2069230131 2021958207 -1101233926 -1098938216
            423979368 -869208505 2093073658 -400042837</internalNodes>
          <leafValues>
            -3.2186418771743774e-01 3.8500562310218811e-01</leafValues></_>
        <_>
          <internalNodes>
            0 -1 133 -154731521 -552800369 1087549139 -675027715
            -496840193 -2113485553 670236863 -6363889</internalNodes>
          <leafValues>
            -3.1623998284339905e-01 4.0568464994430542e-01</leafValues></_>
        <_>
          <internalNodes>
            0 -1 16 -1356666001 10628005 1588841179 699728003 1078257015
            1077027775 -453515423 1089987671</internalNodes>
          <leafValues>
            -4.2179939150810242e-01 3.1100791692733765e-01</leafValues></_>
        <_>
          <internalNodes>
            0 -1 87 -1161358967 -778366807 833926143 -624903500
            -807210107 -646082175 -554251267 -230673899</internalNodes>
          <leafValues>
            -4.4558933377265930e-01 3.0778133869171143e-01</leafValues></_>
        <_>
          <internalNodes>
            0 -1 36 -135144880 -117810990 117524267 -1197431402
            -1711286088 -1116474160 1339770882 268422015</internalNodes>
          <leafValues>
            -4.6379551291465759e-01 2.8994411230087280e-01</leafValues></_>
        <_>
          <internalNodes>
            0 -1 78 -606930854 936968410 1603407567 998179460 -356210984
            -1167774785 242289326 1006306318</internalNodes>
          <leafValues>
            -4.5690810680389404e-01 2.8923532366752625e-01</leafValues></_></weakClassifiers></_>
    <!-- stage 10 -->
    <_>
      <maxWeakCount>11</maxWeakCount>
      <stageThreshold>-9.3590080738067627e-01</stageThreshold>
      <weakClassifiers>
        <_>
          <internalNodes>
            0 -1 73 -132660 -8705 -113382416 -67403599 -1361076408
            -72376737 -555749477 -74711621</internalNodes>
          <leafValues>
            -2.9683780670166016e-01 6.3921439647674561e-01</leafValues></_>
        <_>
          <internalNodes>
            0 -1 69 824309177 -710187013 -1112802817 -7606530 -709159548
            -570468358 -1615119955 -812710262</internalNodes>
          <leafValues>
            -3.8286942243576050e-01 4.9137258529663086e-01</leafValues></_>
        <_>
          <internalNodes>
            0 -1 163 1528520533 1560248151 -9044001 -1205993641
            -33579171 -571089633 -603979809 -117964801</internalNodes>
          <leafValues>
            -3.3967435359954834e-01 5.0198739767074585e-01</leafValues></_>
        <_>
          <internalNodes>
            0 -1 4 -134742287 -285496651 -1355814083 -1905572225
            -69945504 -252452686 -16384010 -482871553</internalNodes>
          <leafValues>
            -3.8520899415016174e-01 3.7409663200378418e-01</leafValues></_>
        <_>
          <internalNodes>
            0 -1 123 -783284032 -704970553 -787867160 -682291149 33792
            -1836054512 1157628412 -550825829</internalNodes>
          <leafValues>
            -4.1751137375831604e-01 3.3320122957229614e-01</leafValues></_>
        <_>
          <internalNodes>
            0 -1 139 -711686692 -637697614 -1720630567 -577961653
            -982474088 -1432398347 -618682641 -56693</internalNodes>
          <leafValues>
            -2.7255764603614807e-01 5.2930980920791626e-01</leafValues></_>
        <_>
          <internalNodes>
            0 -1 138 -1696921153 1622837978 -615047169 913229644
            -1326247597 -1593900693 390282747 1953510004</internalNodes>
          <leafValues>
            -4.4080427289009094e-01 3.1747454404830933e-01</leafValues></_>
        <_>
          <internalNodes>
            0 -1 158 -1660899080 -705625092 1026570651 1068073327
            -1288000772 -1428421079 755542190 -1414815569</internalNodes>
          <leafValues>
            -3.5300403833389282e-01 3.9367747306823730e-01</leafValues></_>
        <_>
          <internalNodes>
            0 -1 145 -1033440526 -1786514486 -238422413 -429537341
            -94437398 1659486636 -1354106997 67583491</internalNodes>
          <leafValues>
            -5.5507838726043701e-01 2.4979034066200256e-01</leafValues></_>
        <_>
          <internalNodes>
            0 -1 186 -218629357 811317915 2104426110 -784467465
            1720791064 -1335659591 -1165433126 -503319862</internalNodes>
          <leafValues>
            -3.3089914917945862e-01 3.9872491359710693e-01</leafValues></_>
        <_>
          <internalNodes>
            0 -1 162 1892413841 420438543 722179345 458835761
            -1416680789 -1170350152 -1282679873 -1143228677</internalNodes>
          <leafValues>
            -2.2302383184432983e-01 5.4492062330245972e-01</leafValues></_></weakClassifiers></_>
    <!-- stage 11 -->
    <_>
      <maxWeakCount>12</maxWeakCount>
      <stageThreshold>-8.5989779233932495e-01</stageThreshold>
      <weakClassifiers>
        <_>
          <internalNodes>
            0 -1 20 -2 -702566706 938997498 -8064 2004088831 -134754817
            -269221889 -5535</internalNodes>
          <leafValues>
            -2.3620438575744629e-01 6.8322867155075073e-01</leafValues></_>
        <_>
          <internalNodes>
            0 -1 63 -570630659 -6505209 -403855873 -15122669 -808521731
            -517 -889212929 -270554113</internalNodes>
          <leafValues>
            -3.1756260991096497e-01 5.9250581264495850e-01</leafValues></_>
        <_>
          <internalNodes>
            0 -1 167 -136316225 861912889 -275433057 867951237
            1078826141 2035356965 1086712571 -371855111</internalNodes>
          <leafValues>
            -4.3056422472000122e-01 3.9837726950645447e-01</leafValues></_>
        <_>
          <internalNodes>
            0 -1 191 -1182794957 -156174091 -1123858671 -719479501
            -1162084587 -1330063141 -128608256 -1732396547</internalNodes>
          <leafValues>
            -4.1242247819900513e-01 3.8906610012054443e-01</leafValues></_>
        <_>
          <internalNodes>
            0 -1 136 -134220117 -393303377 1088365535 1121953423
            -203472629 -1913673457 1977064591 535820175</internalNodes>
          <leafValues>
            -5.1700246334075928e-01 3.0167081952095032e-01</leafValues></_>
        <_>
          <internalNodes>
            0 -1 21 -432085921 -675989953 -1359028497 -1229393057
            1968590916 2054428015 -84738129 -18985286</internalNodes>
          <leafValues>
            -3.6931717395782471e-01 3.9635258913040161e-01</leafValues></_>
        <_>
          <internalNodes>
            0 -1 95 -11012097 -1680225537 -1246253316 -582497186
            -1152160965 2134245303 -1302594614 2031324791</internalNodes>
          <leafValues>
            -3.2625627517700195e-01 4.4324091076850891e-01</leafValues></_>
        <_>
          <internalNodes>
            0 -1 184 -673710846 -734530679 -52039441 82880966 -997742414
            1185655411 -63189781 1413862623</internalNodes>
          <leafValues>
            -3.9856907725334167e-01 3.6064264178276062e-01</leafValues></_>
        <_>
          <internalNodes>
            0 -1 84 -1616718728 2070826150 -541196545 1002368110
            1029762734 -811140590 1467670408 771769156</internalNodes>
          <leafValues>
            -5.6578123569488525e-01 2.5368559360504150e-01</leafValues></_>
        <_>
          <internalNodes>
            0 -1 124 2127387655 2084028197 -34250753 1882181975
            1574268798 2070827566 -271852737 -1610023041</internalNodes>
          <leafValues>
            -4.1484972834587097e-01 3.3856236934661865e-01</leafValues></_>
        <_>
          <internalNodes>
            0 -1 31 -1508900865 -1451246690 1862249465 -4327436
            -1898975233 -814761259 -402794569 -697838736</internalNodes>
          <leafValues>
            -2.8444632887840271e-01 4.8845618963241577e-01</leafValues></_>
        <_>
          <internalNodes>
            0 -1 34 -1165308313 1311411950 -321753165 -268292446
            -159711425 1097999711 -305037313 1176720914</internalNodes>
          <leafValues>
            -5.1526540517807007e-01 2.9923272132873535e-01</leafValues></_></weakClassifiers></_>
    <!-- stage 12 -->
    <_>
      <maxWeakCount>12</maxWeakCount>
      <stageThreshold>-9.7699618339538574e-01</stageThreshold>
      <weakClassifiers>
        <_>
          <internalNodes>
            0 -1 85 -33576385 924138259 -1157723393 -1073758913
            -286970129 -33786540 -474960129 -152865</internalNodes>
          <leafValues>
            -2.5443038344383240e-01 6.5136986970901489e-01</leafValues></_>
        <_>
          <internalNodes>
            0 -1 50 -793706497 875345371 1413808127 1414841429
            1208011394 -2228787 -2134574689 -375001113</internalNodes>
          <leafValues>
            -3.9943650364875793e-01 4.7447448968887329e-01</leafValues></_>
        <_>
          <internalNodes>
            0 -1 166 1886646523 -204311868 472005215 2068246654
            1345548304 -215600060 595031358 2137195163</internalNodes>
          <leafValues>
            -6.3683474063873291e-01 2.8975555300712585e-01</leafValues></_>
        <_>
          <internalNodes>
            0 -1 174 -136314915 -614728429 -303042689 -138936457
            1860141320 -1852875012 -318903160 -641732805</internalNodes>
          <leafValues>
            -3.5463747382164001e-01 4.8084801435470581e-01</leafValues></_>
        <_>
          <internalNodes>
            0 -1 24 -865079305 1216921594 2012209143 -352911402
            -758124801 -734757643 -948472331 -403180057</internalNodes>
          <leafValues>
            -3.6336347460746765e-01 4.1562911868095398e-01</leafValues></_>
        <_>
          <internalNodes>
            0 -1 38 244252670 2080342014 -1431155528 1466856992
            580124670 258014844 -1954612516 -160464896</internalNodes>
          <leafValues>
            -4.8506113886833191e-01 2.8452050685882568e-01</leafValues></_>
        <_>
          <internalNodes>
            0 -1 157 -784866928 -665458983 1419335167 358599155
            -1293895242 -1744537488 11393979 135263707</internalNodes>
          <leafValues>
            -5.4943603277206421e-01 2.4198937416076660e-01</leafValues></_>
        <_>
          <internalNodes>
            0 -1 126 -146407595 -379008398 -1148421514 -449011590
            1396768085 -82445635 473223248 2017781948</internalNodes>
          <leafValues>
            -4.4489514827728271e-01 3.1094491481781006e-01</leafValues></_>
        <_>
          <internalNodes>
            0 -1 147 -143656961 1486137612 1677768285 2143160 -758742396
            -601221444 -339326760 -236784685</internalNodes>
          <leafValues>
            -3.1500619649887085e-01 4.4123482704162598e-01</leafValues></_>
        <_>
          <internalNodes>
            0 -1 183 -349201485 26269489 -311167567 -649988783 951319475
            300367795 167581665 -977013775</internalNodes>
          <leafValues>
            -3.2593700289726257e-01 4.2838028073310852e-01</leafValues></_>
        <_>
          <internalNodes>
            0 -1 3 569286647 -1485952118 -705180773 -1077608618
            2095578823 56517513 1439002736 -991562761</internalNodes>
          <leafValues>
            -3.8356077671051025e-01 3.7168520689010620e-01</leafValues></_>
        <_>
          <internalNodes>
            0 -1 60 -581633199 -673949348 -539157669 476647517
            -963854710 1495605114 1782593847 -144733185</internalNodes>
          <leafValues>
            -3.7045314908027649e-01 3.6352127790451050e-01</leafValues></_></weakClassifiers></_>
    <!-- stage 13 -->
    <_>
      <maxWeakCount>14</maxWeakCount>
      <stageThreshold>-1.0409055948257446e+00</stageThreshold>
      <weakClassifiers>
        <_>
          <internalNodes>
            0 -1 150 -572728067 -570892291 -12801 -1077960790 -304245508
            -139521 -4210690 -67125333</internalNodes>
          <leafValues>
            -2.4870307743549347e-01 6.6660839319229126e-01</leafValues></_>
        <_>
          <internalNodes>
            0 -1 57 -2145337345 -576659461 -1082654721 -42139655
            -1212485633 -1073807361 -268595201 -3145745</internalNodes>
          <leafValues>
            -2.7769389748573303e-01 5.6627541780471802e-01</leafValues></_>
        <_>
          <internalNodes>
            0 -1 181 -8414273 1968570165 -1145062403 -142737635
            -142622840 -327442657 -1124549972 -34734145</internalNodes>
          <leafValues>
            -2.6125955581665039e-01 5.5907976627349854e-01</leafValues></_>
        <_>
          <internalNodes>
            0 -1 33 -1032141057 -401955206 -1031747921 194186 -872461203
            607289980 -1031883938 -1032142186</internalNodes>
          <leafValues>
            -3.7738442420959473e-01 3.7248471379280090e-01</leafValues></_>
        <_>
          <internalNodes>
            0 -1 14 -539512913 -134631425 -134254593 -1662838 -739184649
            -673873977 -680067081 -139112518</internalNodes>
          <leafValues>
            -2.9296609759330750e-01 4.7106119990348816e-01</leafValues></_>
        <_>
          <internalNodes>
            0 -1 159 6292 424154520 103903711 1934968207 -1474187586
            -1183317874 -1204182853 -1081369413</internalNodes>
          <leafValues>
            -3.6394092440605164e-01 3.5879772901535034e-01</leafValues></_>
        <_>
          <internalNodes>
            0 -1 189 -162008747 -1064963691 -54570687 -302518281
            872390404 2817525 -657270784 1083373447</internalNodes>
          <leafValues>
            -5.0372624397277832e-01 2.4894425272941589e-01</leafValues></_>
        <_>
          <internalNodes>
            0 -1 23 -422610953 -496211986 -538477701 -134234626
            1845360627 -2097152285 -169410459 -1001403147</internalNodes>
          <leafValues>
            -3.4859549999237061e-01 3.7490800023078918e-01</leafValues></_>
        <_>
          <internalNodes>
            0 -1 120 1756054135 403852883 -1076682881 -1291837649
            -1896906913 -1935917541 -1638538 -11605524</internalNodes>
          <leafValues>
            -3.4070408344268799e-01 3.8344180583953857e-01</leafValues></_>
        <_>
          <internalNodes>
            0 -1 178 230656432 -1977599176 -646244527 -537264655
            -1124090117 -1949176331 870305665 -39862543</internalNodes>
          <leafValues>
            -3.3321830630302429e-01 3.8785505294799805e-01</leafValues></_>
        <_>
          <internalNodes>
            0 -1 96 -134746145 -1078591628 -640736235 -10646004
            1624275963 -1166608393 1626562811 -34210097</internalNodes>
          <leafValues>
            -2.7884370088577271e-01 4.6629467606544495e-01</leafValues></_>
        <_>
          <internalNodes>
            0 -1 140 -210380356 499171488 -1764958803 421353177
            1825500568 -1408585471 -3825782 -1681926513</internalNodes>
          <leafValues>
            -3.0579856038093567e-01 4.0993958711624146e-01</leafValues></_>
        <_>
          <internalNodes>
            0 -1 91 -3206795 62100345 1155079434 1977597321 -1229990993
            -1867802771 -15994742 1154150888</internalNodes>
          <leafValues>
            -4.8163622617721558e-01 2.6988536119461060e-01</leafValues></_>
        <_>
          <internalNodes>
            0 -1 161 -624658208 -646178560 -1636469281 -3209989
            -792419933 -1820640863 -1807971137 -1243641621</internalNodes>
          <leafValues>
            -3.1984862685203552e-01 4.1990917921066284e-01</leafValues></_></weakClassifiers></_>
    <!-- stage 14 -->
    <_>
      <maxWeakCount>14</maxWeakCount>
      <stageThreshold>-1.2054151296615601e+00</stageThreshold>
      <weakClassifiers>
        <_>
          <internalNodes>
            0 -1 101 -638517253 1422983127 -1146945539 2046033919
            -135534341 -536589 -69487618 -26145</internalNodes>
          <leafValues>
            -1.2723556160926819e-01 6.8777036666870117e-01</leafValues></_>
        <_>
          <internalNodes>
            0 -1 79 135212923 170901247 1333264383 1031142303
            -1929409153 -1342214817 -805438481 -809506092</internalNodes>
          <leafValues>
            -3.4041428565979004e-01 4.5453041791915894e-01</leafValues></_>
        <_>
          <internalNodes>
            0 -1 74 -134217729 1912274942 -713951401 855769003
            1207846124 -677723934 1442727040 -108275203</internalNodes>
          <leafValues>
            -3.5647776722908020e-01 4.1328823566436768e-01</leafValues></_>
        <_>
          <internalNodes>
            0 -1 115 -208338951 -48365843 -5003601 -442260401 808564721
            -215878931 544612607 1757389015</internalNodes>
          <leafValues>
            -4.2524224519729614e-01 3.3543902635574341e-01</leafValues></_>
        <_>
          <internalNodes>
            0 -1 94 -113058595 -3383339 1745026404 -145389961 268458032
            -925498368 1062490831 -45481</internalNodes>
          <leafValues>
            -3.8544836640357971e-01 3.1222006678581238e-01</leafValues></_>
        <_>
          <internalNodes>
            0 -1 156 -617612310 -170930802 1363156483 1493535503
            -1949972306 -609419221 -677038329 1930151723</internalNodes>
          <leafValues>
            -4.7135421633720398e-01 2.7265927195549011e-01</leafValues></_>
        <_>
          <internalNodes>
            0 -1 15 1274261503 -203019282 -336154689 2147012526
            1601220319 1291106807 -1611185425 -17437009</internalNodes>
          <leafValues>
            -2.9863038659095764e-01 4.6191444993019104e-01</leafValues></_>
        <_>
          <internalNodes>
            0 -1 26 2004344817 -1201986828 -1490038984 -2098434450
            -683606624 -890052596 788852523 -833640826</internalNodes>
          <leafValues>
            -4.3598794937133789e-01 2.8351691365242004e-01</leafValues></_>
        <_>
          <internalNodes>
            0 -1 146 -614507758 -1605463422 1961308690 -598557176
            -565060600 -691776502 -153834752 -581708464</internalNodes>
          <leafValues>
            -4.2084446549415588e-01 2.9575288295745850e-01</leafValues></_>
        <_>
          <internalNodes>
            0 -1 83 -651119107 -171698313 -580861993 2010135365
            -1458303141 1510521207 -1478188962 -235554598</internalNodes>
          <leafValues>
            -3.7332969903945923e-01 3.1030187010765076e-01</leafValues></_>
        <_>
          <internalNodes>
            0 -1 54 1357569759 -63224179 -29033732 1537946347
            -1069497188 -832790310 -1151281192 -341970753</internalNodes>
          <leafValues>
            -2.7346652746200562e-01 4.3387496471405029e-01</leafValues></_>
        <_>
          <internalNodes>
            0 -1 155 -168110085 2012348275 -1075614469 557944559
            1557469663 -68132882 -277217702 -1118795870</internalNodes>
          <leafValues>
            -2.4877262115478516e-01 4.5087522268295288e-01</leafValues></_>
        <_>
          <internalNodes>
            0 -1 70 -542026576 -1145446223 -562134833 -1082277138
            11907311 -1219143754 1079317592 -13589314</internalNodes>
          <leafValues>
            -3.8776141405105591e-01 3.0451184511184692e-01</leafValues></_>
        <_>
          <internalNodes>
            0 -1 19 -667682513 -965771353 1115418550 1296298703
            -244491723 1711759652 2012903254 -482091689</internalNodes>
          <leafValues>
            -3.1563094258308411e-01 3.8534200191497803e-01</leafValues></_></weakClassifiers></_>
    <!-- stage 15 -->
    <_>
      <maxWeakCount>14</maxWeakCount>
      <stageThreshold>-1.2515623569488525e+00</stageThreshold>
      <weakClassifiers>
        <_>
          <internalNodes>
            0 -1 148 -235579907 -4222529 -305181489 -43037302 503141628
            -71673349 -43841 -22323797</internalNodes>
          <leafValues>
            -2.2660580277442932e-01 6.2278777360916138e-01</leafValues></_>
        <_>
          <internalNodes>
            0 -1 27 2145050623 -1083527506 -1073807369 -8342614
            -141754369 -7055501 -134875145 -2700289</internalNodes>
          <leafValues>
            -2.8613927960395813e-01 5.4194289445877075e-01</leafValues></_>
        <_>
          <internalNodes>
            0 -1 193 -46958793 1895274981 -549471465 536598335
            -1078723196 -105186307 -908084736 -104859713</internalNodes>
          <leafValues>
            -3.4965446591377258e-01 4.1951200366020203e-01</leafValues></_>
        <_>
          <internalNodes>
            0 -1 59 -795814403 -13420043 -165258377 -249411418
            -251856133 -16911941 -1011694678 -550778450</internalNodes>
          <leafValues>
            -3.4899345040321350e-01 3.7080654501914978e-01</leafValues></_>
        <_>
          <internalNodes>
            0 -1 107 -168037377 -1166007688 -1294339 285212104
            -179313164 -657177387 -173836582 -604006469</internalNodes>
          <leafValues>
            -3.0934807658195496e-01 4.0645438432693481e-01</leafValues></_>
        <_>
          <internalNodes>
            0 -1 134 -3145986 -997445953 709512730 1109387351 -23885
            1331050002 -1089293181 639365959</internalNodes>
          <leafValues>
            -5.0775063037872314e-01 2.3061084747314453e-01</leafValues></_>
        <_>
          <internalNodes>
            0 -1 11 237241599 -77640963 1852089080 -801025 -160172559
            -8948729 -1016473858 -279709717</internalNodes>
          <leafValues>
            -2.7467554807662964e-01 4.2467665672302246e-01</leafValues></_>
        <_>
          <internalNodes>
            0 -1 116 -13267281 145491086 -445731418 -992106772 -80677120
            1425064273 -6488320 1464133964</internalNodes>
          <leafValues>
            -4.3147134780883789e-01 2.7885434031486511e-01</leafValues></_>
        <_>
          <internalNodes>
            0 -1 121 1478260781 4849700 -133632197 1090526736 -37970811
            69081528 -1122648683 525303568</internalNodes>
          <leafValues>
            -4.9696397781372070e-01 2.5219172239303589e-01</leafValues></_>
        <_>
          <internalNodes>
            0 -1 179 -1317022881 -1192010987 -1427647527 540143400
            1355633924 1347688273 -76678183 1148648767</internalNodes>
          <leafValues>
            -4.8229184746742249e-01 2.4660554528236389e-01</leafValues></_>
        <_>
          <internalNodes>
            0 -1 102 -604783707 277072808 1163227605 -707813929
            -1747550664 -2139045969 1584804032 -806667597</internalNodes>
          <leafValues>
            -2.9692488908767700e-01 4.0064227581024170e-01</leafValues></_>
        <_>
          <internalNodes>
            0 -1 10 937408047 -26875153 -1073856770 -1125677498
            1914129213 1028089983 -8388785 -1669345193</internalNodes>
          <leafValues>
            -3.0963259935379028e-01 3.7390929460525513e-01</leafValues></_>
        <_>
          <internalNodes>
            0 -1 149 -2101554 1321639668 1212221452 -1064766994
            -43086330 1291916384 -255794632 -236259414</internalNodes>
          <leafValues>
            -3.7360846996307373e-01 3.0908048152923584e-01</leafValues></_>
        <_>
          <internalNodes>
            0 -1 56 -905297797 1205539488 682291455 276537977 20481112
            989841009 1247731167 -595972361</internalNodes>
          <leafValues>
            -3.0082562565803528e-01 3.8918834924697876e-01</leafValues></_></weakClassifiers></_>
    <!-- stage 16 -->
    <_>
      <maxWeakCount>14</maxWeakCount>
      <stageThreshold>-9.9095571041107178e-01</stageThreshold>
      <weakClassifiers>
        <_>
          <internalNodes>
            0 -1 187 -35652144 -572524605 -1996472016 -672141315
            -1143474816 -1934164009 -544146528 -67108929</internalNodes>
          <leafValues>
            -1.3998368382453918e-01 6.6059011220932007e-01</leafValues></_>
        <_>
          <internalNodes>
            0 -1 52 -172918787 -1082064909 -33558785 -154907 1106770879
            -1347289155 1172771995 -840694402</internalNodes>
          <leafValues>
            -3.4214749932289124e-01 4.4661000370979309e-01</leafValues></_>
        <_>
          <internalNodes>
            0 -1 98 -11733028 255967219 -1657298081 836351861
            -1089884931 889503103 -374439180 836608226</internalNodes>
          <leafValues>
            -6.1981457471847534e-01 2.3121431469917297e-01</leafValues></_>
        <_>
          <internalNodes>
            0 -1 195 -8913121 -1556086853 -35209245 -264913001
            2124133132 -953880951 1779415756 -24117361</internalNodes>
          <leafValues>
            -2.8561076521873474e-01 4.6214583516120911e-01</leafValues></_>
        <_>
          <internalNodes>
            0 -1 108 -733690626 -707697601 692385751 2133265429
            402653316 -670023120 1547898875 -72400641</internalNodes>
          <leafValues>
            -3.4192544221878052e-01 3.6530295014381409e-01</leafValues></_>
        <_>
          <internalNodes>
            0 -1 164 -145359873 -44624814 1549091919 1892710626
            1362432215 -562605963 -715274753 -352325853</internalNodes>
          <leafValues>
            -3.2440385222434998e-01 3.6090531945228577e-01</leafValues></_>
        <_>
          <internalNodes>
            0 -1 12 -5921229 -144736155 -1347490169 -268980485 -13304336
            -588860304 -1020986465 -834805505</internalNodes>
          <leafValues>
            -3.4430620074272156e-01 3.4334430098533630e-01</leafValues></_>
        <_>
          <internalNodes>
            0 -1 131 -1050708145 -1037917686 1079813460 -391214422
            -518434748 -2144589758 1347481637 -966281528</internalNodes>
          <leafValues>
            -3.5544100403785706e-01 3.3374154567718506e-01</leafValues></_>
        <_>
          <internalNodes>
            0 -1 144 1987520279 840525335 -1126330919 575811438
            1599829886 2129738538 -19136514 1344830842</internalNodes>
          <leafValues>
            -4.4906592369079590e-01 2.8052803874015808e-01</leafValues></_>
        <_>
          <internalNodes>
            0 -1 53 1746597006 2054158735 -1336348552 -683415538
            -1983995649 -1174853329 -2125446104 -9480183</internalNodes>
          <leafValues>
            -4.2684939503669739e-01 2.5907507538795471e-01</leafValues></_>
        <_>
          <internalNodes>
            0 -1 152 -135332926 -1649151449 250506240 999455650
            708887808 2048491584 457940939 209243995</internalNodes>
          <leafValues>
            -6.3316643238067627e-01 1.7372195422649384e-01</leafValues></_>
        <_>
          <internalNodes>
            0 -1 82 1062520789 -1663795451 -950265067 232072349
            -1573873485 724757364 -1459472133 -1654699303</internalNodes>
          <leafValues>
            -4.2492130398750305e-01 2.8082418441772461e-01</leafValues></_>
        <_>
          <internalNodes>
            0 -1 141 -711946088 -709357551 476356340 -141208189
            339779528 -1240455430 -1127175461 -1551131219</internalNodes>
          <leafValues>
            -3.0798342823982239e-01 3.8080734014511108e-01</leafValues></_>
        <_>
          <internalNodes>
            0 -1 68 -646588419 -1350457426 -141500459 -542159817
            -168782337 -1616563827 -787036984 -588790465</internalNodes>
          <leafValues>
            -2.6175436377525330e-01 4.5611512660980225e-01</leafValues></_></weakClassifiers></_>
    <!-- stage 17 -->
    <_>
      <maxWeakCount>15</maxWeakCount>
      <stageThreshold>-1.2273352146148682e+00</stageThreshold>
      <weakClassifiers>
        <_>
          <internalNodes>
            0 -1 32 -66108 -1837233 -1412501752 -1146093750 -1276444934
            -202131715 -20001554 -1413498389</internalNodes>
          <leafValues>
            -1.9869707524776459e-01 6.0876899957656860e-01</leafValues></_>
        <_>
          <internalNodes>
            0 -1 48 -1429595297 -44163243 -71976961 -136454149
            -1107361797 -2689193 -2704933 -144183045</internalNodes>
          <leafValues>
            -3.2102027535438538e-01 4.5953804254531860e-01</leafValues></_>
        <_>
          <internalNodes>
            0 -1 180 -2359345 -1186727193 2104459255 1496965045
            -35936888 -783501676 -1611289876 -71565413</internalNodes>
          <leafValues>
            -2.6103928685188293e-01 4.9085459113121033e-01</leafValues></_>
        <_>
          <internalNodes>
            0 -1 71 -185205095 2035362603 -179257463 -606924822
            1151059019 76905 1049619695 479972267</internalNodes>
          <leafValues>
            -3.4825509786605835e-01 3.3870735764503479e-01</leafValues></_>
        <_>
          <internalNodes>
            0 -1 190 2069887829 1432059893 -43386027 -541113926
            -272634113 -50331841 -662999040 -1064636256</internalNodes>
          <leafValues>
            -3.7543612718582153e-01 3.0744391679763794e-01</leafValues></_>
        <_>
          <internalNodes>
            0 -1 40 -1909526669 -1547998 -1646635 -44025038 1202622159
            -1144864837 1300108765 -10628621</internalNodes>
          <leafValues>
            -3.2184633612632751e-01 3.6357924342155457e-01</leafValues></_>
        <_>
          <internalNodes>
            0 -1 109 -1796728648 1362427962 2065188176 391579175
            -1718230896 1606304851 456393354 331285006</internalNodes>
          <leafValues>
            -5.2107751369476318e-01 2.1502631902694702e-01</leafValues></_>
        <_>
          <internalNodes>
            0 -1 28 -408967193 -34689234 783783923 -9637202 -487634993
            1321656123 887969249 -3156418</internalNodes>
          <leafValues>
            -2.7390810847282410e-01 4.1972649097442627e-01</leafValues></_>
        <_>
          <internalNodes>
            0 -1 112 2111627197 1225179388 762821070 13092606 -646941936
            -1654947919 -9274606 -62062996</internalNodes>
          <leafValues>
            -3.3737444877624512e-01 3.3664095401763916e-01</leafValues></_>
        <_>
          <internalNodes>
            0 -1 142 293319824 11051672 -1729138255 -610271319
            -1559784517 28900019 -1869672711 -772804943</internalNodes>
          <leafValues>
            -3.7868762016296387e-01 2.9714363813400269e-01</leafValues></_>
        <_>
          <internalNodes>
            0 -1 132 -351853005 2138417804 -639887793 -1124742390
            774619069 -838327623 -189596741 -796736508</internalNodes>
          <leafValues>
            -3.4543752670288086e-01 3.2757717370986938e-01</leafValues></_>
        <_>
          <internalNodes>
            0 -1 122 -138948070 1879273488 968955170 1426322978
            -1026834261 3027115 -1981307238 3134879</internalNodes>
          <leafValues>
            -6.2399470806121826e-01 1.8189449608325958e-01</leafValues></_>
        <_>
          <internalNodes>
            0 -1 188 1002014612 808690579 680248324 1406727111
            -1117805008 -1470892407 522160385 312058860</internalNodes>
          <leafValues>
            -5.1793164014816284e-01 1.9586955010890961e-01</leafValues></_>
        <_>
          <internalNodes>
            0 -1 110 780535302 2034236999 -402784393 -1506463969
            -286483137 -1352790813 -381753365 -1374930420</internalNodes>
          <leafValues>
            -4.4415789842605591e-01 2.5627675652503967e-01</leafValues></_>
        <_>
          <internalNodes>
            0 -1 76 -788995620 1574577048 980707464 -41375383
            -2067790680 -100794358 1308625112 -1629433</internalNodes>
          <leafValues>
            -3.9801120758056641e-01 2.9275527596473694e-01</leafValues></_></weakClassifiers></_>
    <!-- stage 18 -->
    <_>
      <maxWeakCount>15</maxWeakCount>
      <stageThreshold>-1.1370953321456909e+00</stageThreshold>
      <weakClassifiers>
        <_>
          <internalNodes>
            0 -1 65 -1583287824 1374778820 -1549598725 -67381251
            -1477713921 -41609 -1146364386 -607167106</internalNodes>
          <leafValues>
            -3.1037488579750061e-01 5.5353415012359619e-01</leafValues></_>
        <_>
          <internalNodes>
            0 -1 185 -33555186 -578814209 -167777093 -261235723
            -268453110 -510398055 -1081109829 -171966529</internalNodes>
          <leafValues>
            -3.1709539890289307e-01 4.7953742742538452e-01</leafValues></_>
        <_>
          <internalNodes>
            0 -1 136 -136320081 -286611794 1885851599 -1058026293
            1128743464 -808463473 1977338187 67107355</internalNodes>
          <leafValues>
            -5.4281252622604370e-01 2.4438959360122681e-01</leafValues></_>
        <_>
          <internalNodes>
            0 -1 169 -249916430 419438880 -923577392 18586 -1283161688
            -1442142037 -374487617 -1953784869</internalNodes>
          <leafValues>
            -4.8597070574760437e-01 2.5073719024658203e-01</leafValues></_>
        <_>
          <internalNodes>
            0 -1 93 -865080081 1034937843 -1071123019 1073800762
            -122958200 -1451219958 1542098681 -12984917</internalNodes>
          <leafValues>
            -3.6649915575981140e-01 3.3588451147079468e-01</leafValues></_>
        <_>
          <internalNodes>
            0 -1 100 -236654187 -1154369993 1957558183 -172912256
            -998929931 282935797 -457127939 -943929970</internalNodes>
          <leafValues>
            -3.2973197102546692e-01 3.5332623124122620e-01</leafValues></_>
        <_>
          <internalNodes>
            0 -1 30 -829437237 2127217294 109440447 -12178774 -749217907
            -736533181 -888884233 -35633</internalNodes>
          <leafValues>
            -2.7331423759460449e-01 4.2169353365898132e-01</leafValues></_>
        <_>
          <internalNodes>
            0 -1 105 -33554435 1038656625 -1653350791 1573480236
            -1448371048 551781028 -1554661168 -546316405</internalNodes>
          <leafValues>
            -2.8869736194610596e-01 3.9944055676460266e-01</leafValues></_>
        <_>
          <internalNodes>
            0 -1 128 -581586381 -99768665 -1149173124 -107108242
            21037654 -365863533 949261430 -2118104385</internalNodes>
          <leafValues>
            -3.8776433467864990e-01 2.9275816679000854e-01</leafValues></_>
        <_>
          <internalNodes>
            0 -1 43 -723911712 1440053237 -156305962 -637719938
            -52652311 -1149242447 195963948 -1920007422</internalNodes>
          <leafValues>
            -3.8842186331748962e-01 2.7378514409065247e-01</leafValues></_>
        <_>
          <internalNodes>
            0 -1 111 1971869146 -648231208 1504342938 -856763938
            2079660859 -337316112 699995179 -7354936</internalNodes>
          <leafValues>
            -3.5578137636184692e-01 3.0627846717834473e-01</leafValues></_>
        <_>
          <internalNodes>
            0 -1 151 61857326 -1928394295 135025752 89068219 -1418384252
            59381776 -774565180 -70518072</internalNodes>
          <leafValues>
            -4.2207887768745422e-01 2.6900979876518250e-01</leafValues></_>
        <_>
          <internalNodes>
            0 -1 177 -1030761855 134235281 1938673809 453901951
            -1745772359 -2044026671 533699971 -1953522193</internalNodes>
          <leafValues>
            -2.9835659265518188e-01 3.6223256587982178e-01</leafValues></_>
        <_>
          <internalNodes>
            0 -1 143 -1890560555 -1291874 -304617479 -1718714182
            -1888748611 -934543340 -940888267 -1884684212</internalNodes>
          <leafValues>
            -3.6992511153221130e-01 3.0471226572990417e-01</leafValues></_>
        <_>
          <internalNodes>
            0 -1 196 -604637261 -1804488907 1843918242 -536118795
            -597798504 -444747852 -1760843646 -1060642038</internalNodes>
          <leafValues>
            -2.8031459450721741e-01 4.1479313373565674e-01</leafValues></_></weakClassifiers></_>
    <!-- stage 19 -->
    <_>
      <maxWeakCount>16</maxWeakCount>
      <stageThreshold>-1.2169017791748047e+00</stageThreshold>
      <weakClassifiers>
        <_>
          <internalNodes>
            0 -1 45 -34034369 2136422161 -1367429121 2143238495
            -288485523 -34210433 -1896828929 -16860161</internalNodes>
          <leafValues>
            -1.6314661502838135e-01 6.1625677347183228e-01</leafValues></_>
        <_>
          <internalNodes>
            0 -1 9 -131073 -152637746 720175095 -1359081729 1425569777
            -1212678159 1744141821 -262961</internalNodes>
          <leafValues>
            -3.4096685051918030e-01 4.1819155216217041e-01</leafValues></_>
        <_>
          <internalNodes>
            0 -1 171 -134751239 -771883009 -1726965240 -774637547
            -69730370 -1998666757 -1148326229 -68158481</internalNodes>
          <leafValues>
            -2.6851278543472290e-01 4.5186847448348999e-01</leafValues></_>
        <_>
          <internalNodes>
            0 -1 89 -67376641 -182350385 -1612775329 -537698081
            239837839 -894393918 -1470166909 -1008418715</internalNodes>
          <leafValues>
            -3.5346892476081848e-01 3.2753363251686096e-01</leafValues></_>
        <_>
          <internalNodes>
            0 -1 29 1608363951 -114413622 363568015 -67591646 356827654
            -858858557 1394993143 -8005797</internalNodes>
          <leafValues>
            -3.4116324782371521e-01 3.2026648521423340e-01</leafValues></_>
        <_>
          <internalNodes>
            0 -1 137 -1677741057 925874702 -2144593217 -9510258 -4456577
            -236995547 -740231393 -11537049</internalNodes>
          <leafValues>
            -2.2854770720005035e-01 4.7001200914382935e-01</leafValues></_>
        <_>
          <internalNodes>
            0 -1 125 -149422287 -33685698 1809177343 -228996749
            -104857665 -157422564 -17580234 -1067715774</internalNodes>
          <leafValues>
            -2.7243047952651978e-01 3.8998666405677795e-01</leafValues></_>
        <_>
          <internalNodes>
            0 -1 64 2095798520 -591577923 -219664567 902627652
            -810816929 -1113651507 -1615657024 368775296</internalNodes>
          <leafValues>
            -3.8145986199378967e-01 2.9259908199310303e-01</leafValues></_>
        <_>
          <internalNodes>
            0 -1 192 1935670101 -146991753 -1103757707 -36842625
            -76862857 -1625088584 -159407612 1081848032</internalNodes>
          <leafValues>
            -4.0998113155364990e-01 2.6063570380210876e-01</leafValues></_>
        <_>
          <internalNodes>
            0 -1 182 -671220803 1901902229 -1078345793 2044720639
            -725763184 1880129009 -1196087158 -1681077300</internalNodes>
          <leafValues>
            -2.8800821304321289e-01 3.8817158341407776e-01</leafValues></_>
        <_>
          <internalNodes>
            0 -1 55 1492274431 1587473107 -2107489031 1496651813
            -912886017 -547469633 -849429761 -70322737</internalNodes>
          <leafValues>
            -2.4294383823871613e-01 4.5567712187767029e-01</leafValues></_>
        <_>
          <internalNodes>
            0 -1 49 -881522470 -860354480 1289904399 -808775722
            -894531669 -1370455716 1107930011 -11800645</internalNodes>
          <leafValues>
            -2.4462923407554626e-01 4.3465906381607056e-01</leafValues></_>
        <_>
          <internalNodes>
            0 -1 25 -810680849 952248450 635257654 -175575090 -214555185
            1423182150 1968390576 -1210607177</internalNodes>
          <leafValues>
            -3.2643193006515503e-01 3.3049261569976807e-01</leafValues></_>
        <_>
          <internalNodes>
            0 -1 173 -735662884 -666774416 -1988739663 -539659815
            -1393693222 -2077540392 -132086309 -1735681638</internalNodes>
          <leafValues>
            -2.7973440289497375e-01 3.9123421907424927e-01</leafValues></_>
        <_>
          <internalNodes>
            0 -1 0 1178642291 2070068989 -1518906937 1073215487
            1602680795 -696072217 1257764208 -1778915374</internalNodes>
          <leafValues>
            -2.8079637885093689e-01 3.7204065918922424e-01</leafValues></_>
        <_>
          <internalNodes>
            0 -1 58 1045430139 -815255573 -752191539 -1660625038
            -1360547845 -1353812009 1340006395 -826020589</internalNodes>
          <leafValues>
            -2.5497218966484070e-01 4.1918820142745972e-01</leafValues></_></weakClassifiers></_></stages>
  <features>
    <_>
      <rect>
        0 0 3 4</rect></_>
    <_>
      <rect>
        0 0 8 3</rect></_>
    <_>
      <rect>
        0 1 8 3</rect></_>
    <_>
      <rect>
        0 3 3 3</rect></_>
    <_>
      <rect>
        0 3 6 5</rect></_>
    <_>
      <rect>
        0 3 7 4</rect></_>
    <_>
      <rect>
        0 4 3 4</rect></_>
    <_>
      <rect>
        0 5 6 4</rect></_>
    <_>
      <rect>
        0 7 2 4</rect></_>
    <_>
      <rect>
        0 11 6 2</rect></_>
    <_>
      <rect>
        0 13 3 3</rect></_>
    <_>
      <rect>
        0 14 5 1</rect></_>
    <_>
      <rect>
        1 3 6 5</rect></_>
    <_>
      <rect>
        1 5 3 2</rect></_>
    <_>
      <rect>
        1 5 3 3</rect></_>
    <_>
      <rect>
        1 6 3 2</rect></_>
    <_>
      <rect>
        1 7 2 3</rect></_>
    <_>
      <rect>
        1 8 2 4</rect></_>
    <_>
      <rect>
        1 10 6 2</rect></_>
    <_>
      <rect>
        1 12 2 2</rect></_>
    <_>
      <rect>
        1 12 4 2</rect></_>
    <_>
      <rect>
        1 18 4 2</rect></_>
    <_>
      <rect>
        2 0 6 2</rect></_>
    <_>
      <rect>
        2 1 3 2</rect></_>
    <_>
      <rect>
        2 2 3 2</rect></_>
    <_>
      <rect>
        2 3 3 2</rect></_>
    <_>
      <rect>
        2 3 5 5</rect></_>
    <_>
      <rect>
        2 4 3 2</rect></_>
    <_>
      <rect>
        2 5 2 2</rect></_>
    <_>
      <rect>
        2 5 3 2</rect></_>
    <_>
      <rect>
        2 7 2 1</rect></_>
    <_>
      <rect>
        3 0 2 2</rect></_>
    <_>
      <rect>
        3 3 7 7</rect></_>
    <_>
      <rect>
        3 11 1 2</rect></_>
    <_>
      <rect>
        3 13 2 2</rect></_>
    <_>
      <rect>
        4 4 4 3</rect></_>
    <_>
      <rect>
        4 4 6 3</rect></_>
    <_>
      <rect>
        4 5 2 1</rect></_>
    <_>
      <rect>
        4 11 2 2</rect></_>
    <_>
      <rect>
        4 14 3 1</rect></_>
    <_>
      <rect>
        5 3 2 2</rect></_>
    <_>
      <rect>
        5 4 4 4</rect></_>
    <_>
      <rect>
        5 5 4 4</rect></_>
    <_>
      <rect>
        5 6 3 5</rect></_>
    <_>
      <rect>
        5 6 5 2</rect></_>
    <_>
      <rect>
        5 7 4 2</rect></_>
    <_>
      <rect>
        5 7 5 3</rect></_>
    <_>
      <rect>
        5 8 3 3</rect></_>
    <_>
      <rect>
        5 8 5 2</rect></_>
    <_>
      <rect>
        5 9 1 1</rect></_>
    <_>
      <rect>
        5 9 5 4</rect></_>
    <_>
      <rect>
        5 10 2 3</rect></_>
    <_>
      <rect>
        5 10 3 2</rect></_>
    <_>
      <rect>
        5 13 2 1</rect></_>
    <_>
      <rect>
        5 15 3 1</rect></_>
    <_>
      <rect>
        5 18 3 2</rect></_>
    <_>
      <rect>
        5 20 2 1</rect></_>
    <_>
      <rect>
        6 0 2 3</rect></_>
    <_>
      <rect>
        6 2 2 2</rect></_>
    <_>
      <rect>
        6 3 4 3</rect></_>
    <_>
      <rect>
        6 4 4 4</rect></_>
    <_>
      <rect>
        6 4 6 4</rect></_>
    <_>
      <rect>
        6 5 3 3</rect></_>
    <_>
      <rect>
        6 5 4 3</rect></_>
    <_>
      <rect>
        6 6 3 4</rect></_>
    <_>
      <rect>
        6 7 3 3</rect></_>
    <_>
      <rect>
        6 7 4 2</rect></_>
    <_>
      <rect>
        6 8 4 3</rect></_>
    <_>
      <rect>
        6 9 2 2</rect></_>
    <_>
      <rect>
        6 9 3 2</rect></_>
    <_>
      <rect>
        6 10 2 2</rect></_>
    <_>
      <rect>
        6 10 4 2</rect></_>
    <_>
      <rect>
        6 10 4 3</rect></_>
    <_>
      <rect>
        6 10 6 2</rect></_>
    <_>
      <rect>
        6 11 4 1</rect></_>
    <_>
      <rect>
        6 12 4 1</rect></_>
    <_>
      <rect>
        6 14 2 1</rect></_>
    <_>
      <rect>
        6 14 4 1</rect></_>
    <_>
      <rect>
        6 16 3 2</rect></_>
    <_>
      <rect>
        7 0 2 2</rect></_>
    <_>
      <rect>
        7 0 3 2</rect></_>
    <_>
      <rect>
        7 4 3 4</rect></_>
    <_>
      <rect>
        7 4 4 4</rect></_>
    <_>
      <rect>
        7 5 3 3</rect></_>
    <_>
      <rect>
        7 6 4 4</rect></_>
    <_>
      <rect>
        7 7 3 2</rect></_>
    <_>
      <rect>
        7 7 4 2</rect></_>
    <_>
      <rect>
        7 8 3 2</rect></_>
    <_>
      <rect>
        7 9 3 1</rect></_>
    <_>
      <rect>
        7 10 2 2</rect></_>
    <_>
      <rect>
        7 10 4 2</rect></_>
    <_>
      <rect>
        7 11 2 1</rect></_>
    <_>
      <rect>
        7 11 3 1</rect></_>
    <_>
      <rect>
        7 11 4 1</rect></_>
    <_>
      <rect>
        7 14 2 1</rect></_>
    <_>
      <rect>
        8 3 3 5</rect></_>
    <_>
      <rect>
        8 3 4 5</rect></_>
    <_>
      <rect>
        8 4 3 4</rect></_>
    <_>
      <rect>
        8 5 2 3</rect></_>
    <_>
      <rect>
        8 5 3 3</rect></_>
    <_>
      <rect>
        8 6 3 2</rect></_>
    <_>
      <rect>
        8 7 2 3</rect></_>
    <_>
      <rect>
        8 7 2 5</rect></_>
    <_>
      <rect>
        8 7 3 2</rect></_>
    <_>
      <rect>
        8 9 3 1</rect></_>
    <_>
      <rect>
        8 13 1 2</rect></_>
    <_>
      <rect>
        8 14 3 1</rect></_>
    <_>
      <rect>
        8 14 3 2</rect></_>
    <_>
      <rect>
        8 15 2 1</rect></_>
    <_>
      <rect>
        8 16 2 2</rect></_>
    <_>
      <rect>
        9 0 3 2</rect></_>
    <_>
      <rect>
        9 0 4 5</rect></_>
    <_>
      <rect>
        9 4 2 4</rect></_>
    <_>
      <rect>
        9 4 2 5</rect></_>
    <_>
      <rect>
        9 4 3 3</rect></_>
    <_>
      <rect>
        9 4 3 4</rect></_>
    <_>
      <rect>
        9 6 2 3</rect></_>
    <_>
      <rect>
        9 8 2 1</rect></_>
    <_>
      <rect>
        9 8 2 3</rect></_>
    <_>
      <rect>
        9 8 3 2</rect></_>
    <_>
      <rect>
        9 10 3 1</rect></_>
    <_>
      <rect>
        9 10 3 2</rect></_>
    <_>
      <rect>
        9 11 1 1</rect></_>
    <_>
      <rect>
        9 15 1 1</rect></_>
    <_>
      <rect>
        10 0 4 2</rect></_>
    <_>
      <rect>
        10 4 1 2</rect></_>
    <_>
      <rect>
        10 4 2 4</rect></_>
    <_>
      <rect>
        10 4 2 5</rect></_>
    <_>
      <rect>
        10 6 2 3</rect></_>
    <_>
      <rect>
        10 7 1 5</rect></_>
    <_>
      <rect>
        10 8 1 2</rect></_>
    <_>
      <rect>
        10 8 1 4</rect></_>
    <_>
      <rect>
        10 8 2 2</rect></_>
    <_>
      <rect>
        10 9 1 2</rect></_>
    <_>
      <rect>
        10 10 1 1</rect></_>
    <_>
      <rect>
        10 10 1 2</rect></_>
    <_>
      <rect>
        10 11 1 1</rect></_>
    <_>
      <rect>
        10 11 2 1</rect></_>
    <_>
      <rect>
        10 11 3 1</rect></_>
    <_>
      <rect>
        10 14 1 1</rect></_>
    <_>
      <rect>
        10 14 3 1</rect></_>
    <_>
      <rect>
        10 16 1 1</rect></_>
    <_>
      <rect>
        10 18 4 2</rect></_>
    <_>
      <rect>
        11 0 2 3</rect></_>
    <_>
      <rect>
        11 0 4 2</rect></_>
    <_>
      <rect>
        11 3 1 3</rect></_>
    <_>
      <rect>
        11 6 1 3</rect></_>
    <_>
      <rect>
        11 7 1 5</rect></_>
    <_>
      <rect>
        11 7 2 3</rect></_>
    <_>
      <rect>
        11 8 1 4</rect></_>
    <_>
      <rect>
        11 8 2 3</rect></_>
    <_>
      <rect>
        11 9 1 3</rect></_>
    <_>
      <rect>
        11 10 1 1</rect></_>
    <_>
      <rect>
        11 10 1 2</rect></_>
    <_>
      <rect>
        11 10 2 2</rect></_>
    <_>
      <rect>
        11 10 3 2</rect></_>
    <_>
      <rect>
        11 11 1 1</rect></_>
    <_>
      <rect>
        11 13 2 1</rect></_>
    <_>
      <rect>
        11 14 1 1</rect></_>
    <_>
      <rect>
        11 15 1 1</rect></_>
    <_>
      <rect>
        11 15 2 1</rect></_>
    <_>
      <rect>
        11 16 1 1</rect></_>
    <_>
      <rect>
        11 19 3 1</rect></_>
    <_>
      <rect>
        12 0 4 3</rect></_>
    <_>
      <rect>
        12 9 1 2</rect></_>
    <_>
      <rect>
        12 9 2 2</rect></_>
    <_>
      <rect>
        12 10 1 1</rect></_>
    <_>
      <rect>
        12 10 1 2</rect></_>
    <_>
      <rect>
        12 11 1 1</rect></_>
    <_>
      <rect>
        12 14 2 1</rect></_>
    <_>
      <rect>
        12 14 3 1</rect></_>
    <_>
      <rect>
        12 14 4 1</rect></_>
    <_>
      <rect>
        12 15 2 1</rect></_>
    <_>
      <rect>
        12 16 1 1</rect></_>
    <_>
      <rect>
        13 4 3 2</rect></_>
    <_>
      <rect>
        13 5 3 2</rect></_>
    <_>
      <rect>
        13 5 3 4</rect></_>
    <_>
      <rect>
        13 18 2 1</rect></_>
    <_>
      <rect>
        13 18 3 2</rect></_>
    <_>
      <rect>
        14 3 3 2</rect></_>
    <_>
      <rect>
        14 4 3 2</rect></_>
    <_>
      <rect>
        14 4 3 3</rect></_>
    <_>
      <rect>
        14 6 3 2</rect></_>
    <_>
      <rect>
        14 17 3 2</rect></_>
    <_>
      <rect>
        15 1 3 7</rect></_>
    <_>
      <rect>
        15 3 3 5</rect></_>
    <_>
      <rect>
        15 6 3 2</rect></_>
    <_>
      <rect>
        15 6 3 6</rect></_>
    <_>
      <rect>
        15 10 2 1</rect></_>
    <_>
      <rect>
        15 10 3 3</rect></_>
    <_>
      <rect>
        15 11 2 2</rect></_>
    <_>
      <rect>
        15 11 3 1</rect></_>
    <_>
      <rect>
        15 12 2 2</rect></_>
    <_>
      <rect>
        15 12 3 1</rect></_>
    <_>
      <rect>
        16 10 2 3</rect></_>
    <_>
      <rect>
        17 5 2 2</rect></_>
    <_>
      <rect>
        17 7 2 2</rect></_>
    <_>
      <rect>
        18 7 2 4</rect></_>
    <_>
      <rect>
        19 9 1 2</rect></_></features></cascade>
</opencv_storage>
