<?xml version="1.0"?>
<opencv_storage>
<!-- Automatically converted from haarcascade_surprise_final, window size = 24x24 -->
<haarcascade_surprise_final type_id="opencv-haar-classifier">
  <size>
    24 24</size>
  <stages>
    <_>
      <!-- stage 0 -->
      <trees>
        <_>
          <!-- tree 0 -->
          <_>
            <!-- root node -->
            <feature>
              <rects>
                <_>
                  8 7 8 4 -1.</_>
                <_>
                  10 7 4 4 2.</_></rects>
              <tilted>0</tilted></feature>
            <threshold>7.5271590612828732e-003</threshold>
            <left_val>-9.4178467988967896e-001</left_val>
            <right_node>1</right_node></_>
          <_>
            <!-- node 1 -->
            <feature>
              <rects>
                <_>
                  5 8 13 12 -1.</_>
                <_>
                  5 11 13 6 2.</_></rects>
              <tilted>0</tilted></feature>
            <threshold>2.8416469693183899e-002</threshold>
            <left_val>-9.9157792329788208e-001</left_val>
            <right_val>9.6760427951812744e-001</right_val></_></_>
        <_>
          <!-- tree 1 -->
          <_>
            <!-- root node -->
            <feature>
              <rects>
                <_>
                  15 7 8 6 -1.</_>
                <_>
                  13 9 8 2 3.</_></rects>
              <tilted>1</tilted></feature>
            <threshold>2.2049389779567719e-002</threshold>
            <left_val>-9.0620458126068115e-001</left_val>
            <right_node>1</right_node></_>
          <_>
            <!-- node 1 -->
            <feature>
              <rects>
                <_>
                  2 13 12 4 -1.</_>
                <_>
                  6 13 4 4 3.</_></rects>
              <tilted>0</tilted></feature>
            <threshold>6.8718059919774532e-003</threshold>
            <left_val>-9.5806139707565308e-001</left_val>
            <right_val>9.5692878961563110e-001</right_val></_></_>
        <_>
          <!-- tree 2 -->
          <_>
            <!-- root node -->
            <feature>
              <rects>
                <_>
                  7 10 11 6 -1.</_>
                <_>
                  7 12 11 2 3.</_></rects>
              <tilted>0</tilted></feature>
            <threshold>5.5102030746638775e-003</threshold>
            <left_val>-9.8739677667617798e-001</left_val>
            <right_node>1</right_node></_>
          <_>
            <!-- node 1 -->
            <feature>
              <rects>
                <_>
                  1 1 10 17 -1.</_>
                <_>
                  6 1 5 17 2.</_></rects>
              <tilted>0</tilted></feature>
            <threshold>2.7989199757575989e-001</threshold>
            <left_val>-5.5249470472335815e-001</left_val>
            <right_val>-3043.</right_val></_></_></trees>
      <stage_threshold>-2.4523410797119141e+000</stage_threshold>
      <parent>-1</parent>
      <next>-1</next></_>
    <_>
      <!-- stage 1 -->
      <trees>
        <_>
          <!-- tree 0 -->
          <_>
            <!-- root node -->
            <feature>
              <rects>
                <_>
                  8 4 8 7 -1.</_>
                <_>
                  10 4 4 7 2.</_></rects>
              <tilted>0</tilted></feature>
            <threshold>1.2161550112068653e-002</threshold>
            <left_val>-9.1771107912063599e-001</left_val>
            <right_node>1</right_node></_>
          <_>
            <!-- node 1 -->
            <feature>
              <rects>
                <_>
                  15 7 8 6 -1.</_>
                <_>
                  13 9 8 2 3.</_></rects>
              <tilted>1</tilted></feature>
            <threshold>1.6745539382100105e-002</threshold>
            <left_val>-7.4434047937393188e-001</left_val>
            <right_val>9.5192372798919678e-001</right_val></_></_>
        <_>
          <!-- tree 1 -->
          <_>
            <!-- root node -->
            <feature>
              <rects>
                <_>
                  1 14 12 2 -1.</_>
                <_>
                  5 14 4 2 3.</_></rects>
              <tilted>0</tilted></feature>
            <threshold>1.2915690429508686e-002</threshold>
            <left_val>-8.0668270587921143e-001</left_val>
            <right_node>1</right_node></_>
          <_>
            <!-- node 1 -->
            <feature>
              <rects>
                <_>
                  6 4 12 7 -1.</_>
                <_>
                  10 4 4 7 3.</_></rects>
              <tilted>0</tilted></feature>
            <threshold>8.8596101850271225e-003</threshold>
            <left_val>-8.9489299058914185e-001</left_val>
            <right_val>9.1755437850952148e-001</right_val></_></_>
        <_>
          <!-- tree 2 -->
          <_>
            <!-- root node -->
            <feature>
              <rects>
                <_>
                  15 8 8 7 -1.</_>
                <_>
                  17 8 4 7 2.</_></rects>
              <tilted>0</tilted></feature>
            <threshold>1.1549020186066628e-002</threshold>
            <left_node>1</left_node>
            <right_val>8.2027882337570190e-001</right_val></_>
          <_>
            <!-- node 1 -->
            <feature>
              <rects>
                <_>
                  10 9 4 5 -1.</_>
                <_>
                  11 9 2 5 2.</_></rects>
              <tilted>0</tilted></feature>
            <threshold>5.9191468171775341e-003</threshold>
            <left_val>-8.9218378067016602e-001</left_val>
            <right_val>7.6165390014648438e-001</right_val></_></_></trees>
      <stage_threshold>-1.0509500503540039e+000</stage_threshold>
      <parent>0</parent>
      <next>-1</next></_>
    <_>
      <!-- stage 2 -->
      <trees>
        <_>
          <!-- tree 0 -->
          <_>
            <!-- root node -->
            <feature>
              <rects>
                <_>
                  1 0 21 9 -1.</_>
                <_>
                  8 3 7 3 9.</_></rects>
              <tilted>0</tilted></feature>
            <threshold>2.2904390096664429e-001</threshold>
            <left_node>1</left_node>
            <right_val>8.1571239233016968e-001</right_val></_>
          <_>
            <!-- node 1 -->
            <feature>
              <rects>
                <_>
                  10 9 4 5 -1.</_>
                <_>
                  11 9 2 5 2.</_></rects>
              <tilted>0</tilted></feature>
            <threshold>9.8870173096656799e-003</threshold>
            <left_val>-9.1441702842712402e-001</left_val>
            <right_val>5.4754471778869629e-001</right_val></_></_>
        <_>
          <!-- tree 1 -->
          <_>
            <!-- root node -->
            <feature>
              <rects>
                <_>
                  7 8 7 6 -1.</_>
                <_>
                  5 10 7 2 3.</_></rects>
              <tilted>1</tilted></feature>
            <threshold>2.3770049214363098e-002</threshold>
            <left_val>-7.8844857215881348e-001</left_val>
            <right_node>1</right_node></_>
          <_>
            <!-- node 1 -->
            <feature>
              <rects>
                <_>
                  11 7 2 14 -1.</_>
                <_>
                  11 14 2 7 2.</_></rects>
              <tilted>0</tilted></feature>
            <threshold>-1.1057890020310879e-002</threshold>
            <left_val>8.8453519344329834e-001</left_val>
            <right_val>-9.0477830171585083e-001</right_val></_></_>
        <_>
          <!-- tree 2 -->
          <_>
            <!-- root node -->
            <feature>
              <rects>
                <_>
                  5 8 8 3 -1.</_>
                <_>
                  7 8 4 3 2.</_></rects>
              <tilted>0</tilted></feature>
            <threshold>-3.7874099798500538e-003</threshold>
            <left_node>1</left_node>
            <right_val>-7.6828992366790771e-001</right_val></_>
          <_>
            <!-- node 1 -->
            <feature>
              <rects>
                <_>
                  2 13 12 4 -1.</_>
                <_>
                  6 13 4 4 3.</_></rects>
              <tilted>0</tilted></feature>
            <threshold>1.1741019552573562e-003</threshold>
            <left_val>-8.0910438299179077e-001</left_val>
            <right_val>8.2274079322814941e-001</right_val></_></_>
        <_>
          <!-- tree 3 -->
          <_>
            <!-- root node -->
            <feature>
              <rects>
                <_>
                  14 7 3 10 -1.</_>
                <_>
                  14 12 3 5 2.</_></rects>
              <tilted>0</tilted></feature>
            <threshold>3.5696590784937143e-003</threshold>
            <left_val>-9.1778188943862915e-001</left_val>
            <right_node>1</right_node></_>
          <_>
            <!-- node 1 -->
            <feature>
              <rects>
                <_>
                  12 7 1 14 -1.</_>
                <_>
                  12 14 1 7 2.</_></rects>
              <tilted>0</tilted></feature>
            <threshold>-2.0817350596189499e-003</threshold>
            <left_val>7.1663200855255127e-001</left_val>
            <right_val>-8.8287699222564697e-001</right_val></_></_></trees>
      <stage_threshold>-1.7630020380020142e+000</stage_threshold>
      <parent>1</parent>
      <next>-1</next></_>
    <_>
      <!-- stage 3 -->
      <trees>
        <_>
          <!-- tree 0 -->
          <_>
            <!-- root node -->
            <feature>
              <rects>
                <_>
                  7 8 5 6 -1.</_>
                <_>
                  5 10 5 2 3.</_></rects>
              <tilted>1</tilted></feature>
            <threshold>2.2596320137381554e-002</threshold>
            <left_val>-7.9825931787490845e-001</left_val>
            <right_node>1</right_node></_>
          <_>
            <!-- node 1 -->
            <feature>
              <rects>
                <_>
                  11 13 12 4 -1.</_>
                <_>
                  15 13 4 4 3.</_></rects>
              <tilted>0</tilted></feature>
            <threshold>1.1557930149137974e-002</threshold>
            <left_val>-6.5248829126358032e-001</left_val>
            <right_val>8.9553737640380859e-001</right_val></_></_>
        <_>
          <!-- tree 1 -->
          <_>
            <!-- root node -->
            <feature>
              <rects>
                <_>
                  5 8 8 3 -1.</_>
                <_>
                  7 8 4 3 2.</_></rects>
              <tilted>0</tilted></feature>
            <threshold>-4.8887929879128933e-003</threshold>
            <left_node>1</left_node>
            <right_val>-7.2307038307189941e-001</right_val></_>
          <_>
            <!-- node 1 -->
            <feature>
              <rects>
                <_>
                  8 8 10 3 -1.</_>
                <_>
                  13 8 5 3 2.</_></rects>
              <tilted>0</tilted></feature>
            <threshold>8.3933733403682709e-003</threshold>
            <left_val>8.5161781311035156e-001</left_val>
            <right_val>-9.1613721847534180e-001</right_val></_></_>
        <_>
          <!-- tree 2 -->
          <_>
            <!-- root node -->
            <feature>
              <rects>
                <_>
                  9 15 6 4 -1.</_>
                <_>
                  9 16 6 2 2.</_></rects>
              <tilted>0</tilted></feature>
            <threshold>5.9664440341293812e-003</threshold>
            <left_node>1</left_node>
            <right_val>7.3868048191070557e-001</right_val></_>
          <_>
            <!-- node 1 -->
            <feature>
              <rects>
                <_>
                  20 4 4 7 -1.</_>
                <_>
                  21 4 2 7 2.</_></rects>
              <tilted>0</tilted></feature>
            <threshold>-9.0307453647255898e-003</threshold>
            <left_val>7.8220570087432861e-001</left_val>
            <right_val>-8.0148112773895264e-001</right_val></_></_>
        <_>
          <!-- tree 3 -->
          <_>
            <!-- root node -->
            <feature>
              <rects>
                <_>
                  18 0 6 6 -1.</_>
                <_>
                  16 2 6 2 3.</_></rects>
              <tilted>1</tilted></feature>
            <threshold>3.1540811061859131e-002</threshold>
            <left_node>1</left_node>
            <right_val>7.4731880426406860e-001</right_val></_>
          <_>
            <!-- node 1 -->
            <feature>
              <rects>
                <_>
                  0 1 6 22 -1.</_>
                <_>
                  2 1 2 22 3.</_></rects>
              <tilted>0</tilted></feature>
            <threshold>-4.4172018766403198e-002</threshold>
            <left_val>6.2284529209136963e-001</left_val>
            <right_val>-7.5447100400924683e-001</right_val></_></_></trees>
      <stage_threshold>-1.5844160318374634e+000</stage_threshold>
      <parent>2</parent>
      <next>-1</next></_>
    <_>
      <!-- stage 4 -->
      <trees>
        <_>
          <!-- tree 0 -->
          <_>
            <!-- root node -->
            <feature>
              <rects>
                <_>
                  1 5 6 12 -1.</_>
                <_>
                  4 5 3 12 2.</_></rects>
              <tilted>0</tilted></feature>
            <threshold>4.1942130774259567e-002</threshold>
            <left_val>-6.6430330276489258e-001</left_val>
            <right_node>1</right_node></_>
          <_>
            <!-- node 1 -->
            <feature>
              <rects>
                <_>
                  2 7 20 15 -1.</_>
                <_>
                  2 12 20 5 3.</_></rects>
              <tilted>0</tilted></feature>
            <threshold>1.1846719682216644e-001</threshold>
            <left_val>-7.5991201400756836e-001</left_val>
            <right_val>9.3749862909317017e-001</right_val></_></_>
        <_>
          <!-- tree 1 -->
          <_>
            <!-- root node -->
            <feature>
              <rects>
                <_>
                  8 6 8 6 -1.</_>
                <_>
                  8 8 8 2 3.</_></rects>
              <tilted>0</tilted></feature>
            <threshold>-1.2114659883081913e-002</threshold>
            <left_node>1</left_node>
            <right_val>-8.0233418941497803e-001</right_val></_>
          <_>
            <!-- node 1 -->
            <feature>
              <rects>
                <_>
                  7 7 16 7 -1.</_>
                <_>
                  11 7 8 7 2.</_></rects>
              <tilted>0</tilted></feature>
            <threshold>4.8105539754033089e-003</threshold>
            <left_val>-8.6738467216491699e-001</left_val>
            <right_val>8.0935442447662354e-001</right_val></_></_>
        <_>
          <!-- tree 2 -->
          <_>
            <!-- root node -->
            <feature>
              <rects>
                <_>
                  15 9 9 5 -1.</_>
                <_>
                  18 9 3 5 3.</_></rects>
              <tilted>0</tilted></feature>
            <threshold>1.5191620215773582e-002</threshold>
            <left_val>-6.0008251667022705e-001</left_val>
            <right_node>1</right_node></_>
          <_>
            <!-- node 1 -->
            <feature>
              <rects>
                <_>
                  7 8 12 5 -1.</_>
                <_>
                  11 8 4 5 3.</_></rects>
              <tilted>0</tilted></feature>
            <threshold>3.8647409528493881e-003</threshold>
            <left_val>-9.3965381383895874e-001</left_val>
            <right_val>8.2223629951477051e-001</right_val></_></_>
        <_>
          <!-- tree 3 -->
          <_>
            <!-- root node -->
            <feature>
              <rects>
                <_>
                  6 7 4 10 -1.</_>
                <_>
                  6 12 4 5 2.</_></rects>
              <tilted>0</tilted></feature>
            <threshold>9.0747512876987457e-003</threshold>
            <left_val>-8.6548787355422974e-001</left_val>
            <right_node>1</right_node></_>
          <_>
            <!-- node 1 -->
            <feature>
              <rects>
                <_>
                  13 10 1 4 -1.</_>
                <_>
                  13 10 1 2 2.</_></rects>
              <tilted>1</tilted></feature>
            <threshold>-9.4108596385922283e-005</threshold>
            <left_val>-9.3458402156829834e-001</left_val>
            <right_val>6.5921717882156372e-001</right_val></_></_></trees>
      <stage_threshold>-1.6054979562759399e+000</stage_threshold>
      <parent>3</parent>
      <next>-1</next></_>
    <_>
      <!-- stage 5 -->
      <trees>
        <_>
          <!-- tree 0 -->
          <_>
            <!-- root node -->
            <feature>
              <rects>
                <_>
                  1 4 6 13 -1.</_>
                <_>
                  4 4 3 13 2.</_></rects>
              <tilted>0</tilted></feature>
            <threshold>4.8070479184389114e-002</threshold>
            <left_node>1</left_node>
            <right_val>7.7819770574569702e-001</right_val></_>
          <_>
            <!-- node 1 -->
            <feature>
              <rects>
                <_>
                  10 6 4 8 -1.</_>
                <_>
                  11 6 2 8 2.</_></rects>
              <tilted>0</tilted></feature>
            <threshold>1.4121050015091896e-002</threshold>
            <left_val>-8.5465037822723389e-001</left_val>
            <right_val>2.7566650509834290e-001</right_val></_></_>
        <_>
          <!-- tree 1 -->
          <_>
            <!-- root node -->
            <feature>
              <rects>
                <_>
                  23 8 1 12 -1.</_>
                <_>
                  20 11 1 6 2.</_></rects>
              <tilted>1</tilted></feature>
            <threshold>1.8226640298962593e-002</threshold>
            <left_val>-7.5026899576187134e-001</left_val>
            <right_node>1</right_node></_>
          <_>
            <!-- node 1 -->
            <feature>
              <rects>
                <_>
                  6 7 8 10 -1.</_>
                <_>
                  6 7 4 5 2.</_>
                <_>
                  10 12 4 5 2.</_></rects>
              <tilted>0</tilted></feature>
            <threshold>-1.4205779880285263e-002</threshold>
            <left_val>8.2090461254119873e-001</left_val>
            <right_val>-6.7968970537185669e-001</right_val></_></_>
        <_>
          <!-- tree 2 -->
          <_>
            <!-- root node -->
            <feature>
              <rects>
                <_>
                  15 2 6 10 -1.</_>
                <_>
                  15 2 3 5 2.</_>
                <_>
                  18 7 3 5 2.</_></rects>
              <tilted>0</tilted></feature>
            <threshold>1.4717330224812031e-002</threshold>
            <left_val>-6.0719287395477295e-001</left_val>
            <right_node>1</right_node></_>
          <_>
            <!-- node 1 -->
            <feature>
              <rects>
                <_>
                  12 7 6 2 -1.</_>
                <_>
                  12 7 3 2 2.</_></rects>
              <tilted>1</tilted></feature>
            <threshold>2.9243528842926025e-003</threshold>
            <left_val>8.0081218481063843e-001</left_val>
            <right_val>-8.9830029010772705e-001</right_val></_></_>
        <_>
          <!-- tree 3 -->
          <_>
            <!-- root node -->
            <feature>
              <rects>
                <_>
                  0 1 6 22 -1.</_>
                <_>
                  2 1 2 22 3.</_></rects>
              <tilted>0</tilted></feature>
            <threshold>-3.9306558668613434e-002</threshold>
            <left_val>7.9165577888488770e-001</left_val>
            <right_node>1</right_node></_>
          <_>
            <!-- node 1 -->
            <feature>
              <rects>
                <_>
                  17 0 6 24 -1.</_>
                <_>
                  19 8 2 8 9.</_></rects>
              <tilted>0</tilted></feature>
            <threshold>1.7630469799041748e-001</threshold>
            <left_val>-6.3656407594680786e-001</left_val>
            <right_val>4.4152370095252991e-001</right_val></_></_></trees>
      <stage_threshold>-1.7705889940261841e+000</stage_threshold>
      <parent>4</parent>
      <next>-1</next></_>
    <_>
      <!-- stage 6 -->
      <trees>
        <_>
          <!-- tree 0 -->
          <_>
            <!-- root node -->
            <feature>
              <rects>
                <_>
                  11 7 9 5 -1.</_>
                <_>
                  14 7 3 5 3.</_></rects>
              <tilted>0</tilted></feature>
            <threshold>-1.5415959991514683e-002</threshold>
            <left_node>1</left_node>
            <right_val>-7.1775281429290771e-001</right_val></_>
          <_>
            <!-- node 1 -->
            <feature>
              <rects>
                <_>
                  7 6 16 8 -1.</_>
                <_>
                  11 6 8 8 2.</_></rects>
              <tilted>0</tilted></feature>
            <threshold>1.6904119402170181e-002</threshold>
            <left_val>-6.4404457807540894e-001</left_val>
            <right_val>8.6651271581649780e-001</right_val></_></_>
        <_>
          <!-- tree 1 -->
          <_>
            <!-- root node -->
            <feature>
              <rects>
                <_>
                  2 2 20 4 -1.</_>
                <_>
                  7 2 10 4 2.</_></rects>
              <tilted>0</tilted></feature>
            <threshold>7.2713732719421387e-002</threshold>
            <left_node>1</left_node>
            <right_val>6.8577218055725098e-001</right_val></_>
          <_>
            <!-- node 1 -->
            <feature>
              <rects>
                <_>
                  0 10 2 14 -1.</_>
                <_>
                  1 10 1 14 2.</_></rects>
              <tilted>0</tilted></feature>
            <threshold>-1.2632830068469048e-002</threshold>
            <left_val>8.5550892353057861e-001</left_val>
            <right_val>-6.9230800867080688e-001</right_val></_></_>
        <_>
          <!-- tree 2 -->
          <_>
            <!-- root node -->
            <feature>
              <rects>
                <_>
                  10 8 3 9 -1.</_>
                <_>
                  7 11 3 3 3.</_></rects>
              <tilted>1</tilted></feature>
            <threshold>2.6780590415000916e-002</threshold>
            <left_val>-7.3337221145629883e-001</left_val>
            <right_node>1</right_node></_>
          <_>
            <!-- node 1 -->
            <feature>
              <rects>
                <_>
                  16 7 6 3 -1.</_>
                <_>
                  16 7 3 3 2.</_></rects>
              <tilted>1</tilted></feature>
            <threshold>-2.1081368904560804e-003</threshold>
            <left_val>7.0938712358474731e-001</left_val>
            <right_val>-8.9946842193603516e-001</right_val></_></_>
        <_>
          <!-- tree 3 -->
          <_>
            <!-- root node -->
            <feature>
              <rects>
                <_>
                  15 13 2 3 -1.</_>
                <_>
                  15 13 1 3 2.</_></rects>
              <tilted>1</tilted></feature>
            <threshold>-1.8322550458833575e-003</threshold>
            <left_node>1</left_node>
            <right_val>-5.6156301498413086e-001</right_val></_>
          <_>
            <!-- node 1 -->
            <feature>
              <rects>
                <_>
                  6 5 15 15 -1.</_>
                <_>
                  6 10 15 5 3.</_></rects>
              <tilted>0</tilted></feature>
            <threshold>2.3429119959473610e-002</threshold>
            <left_val>-9.7930151224136353e-001</left_val>
            <right_val>7.1707278490066528e-001</right_val></_></_>
        <_>
          <!-- tree 4 -->
          <_>
            <!-- root node -->
            <feature>
              <rects>
                <_>
                  14 11 1 2 -1.</_>
                <_>
                  14 11 1 1 2.</_></rects>
              <tilted>1</tilted></feature>
            <threshold>3.1838069844525307e-005</threshold>
            <left_node>1</left_node>
            <right_val>-8.9096158742904663e-001</right_val></_>
          <_>
            <!-- node 1 -->
            <feature>
              <rects>
                <_>
                  9 10 6 3 -1.</_>
                <_>
                  9 11 6 1 3.</_></rects>
              <tilted>0</tilted></feature>
            <threshold>-1.8605289515107870e-003</threshold>
            <left_val>-9.1554111242294312e-001</left_val>
            <right_val>5.6687867641448975e-001</right_val></_></_></trees>
      <stage_threshold>-2.0644090175628662e+000</stage_threshold>
      <parent>5</parent>
      <next>-1</next></_>
    <_>
      <!-- stage 7 -->
      <trees>
        <_>
          <!-- tree 0 -->
          <_>
            <!-- root node -->
            <feature>
              <rects>
                <_>
                  2 8 12 1 -1.</_>
                <_>
                  5 11 6 1 2.</_></rects>
              <tilted>1</tilted></feature>
            <threshold>1.9304500892758369e-002</threshold>
            <left_val>-7.4212068319320679e-001</left_val>
            <right_node>1</right_node></_>
          <_>
            <!-- node 1 -->
            <feature>
              <rects>
                <_>
                  2 8 21 8 -1.</_>
                <_>
                  2 10 21 4 2.</_></rects>
              <tilted>0</tilted></feature>
            <threshold>1.5459230169653893e-002</threshold>
            <left_val>-8.5435080528259277e-001</left_val>
            <right_val>7.7401000261306763e-001</right_val></_></_>
        <_>
          <!-- tree 1 -->
          <_>
            <!-- root node -->
            <feature>
              <rects>
                <_>
                  7 5 10 9 -1.</_>
                <_>
                  7 8 10 3 3.</_></rects>
              <tilted>0</tilted></feature>
            <threshold>-3.5382129251956940e-002</threshold>
            <left_node>1</left_node>
            <right_val>-7.2089791297912598e-001</right_val></_>
          <_>
            <!-- node 1 -->
            <feature>
              <rects>
                <_>
                  2 12 10 6 -1.</_>
                <_>
                  7 12 5 6 2.</_></rects>
              <tilted>0</tilted></feature>
            <threshold>-3.6175008863210678e-003</threshold>
            <left_val>-8.9070177078247070e-001</left_val>
            <right_val>6.3189607858657837e-001</right_val></_></_>
        <_>
          <!-- tree 2 -->
          <_>
            <!-- root node -->
            <feature>
              <rects>
                <_>
                  6 14 12 3 -1.</_>
                <_>
                  10 14 4 3 3.</_></rects>
              <tilted>0</tilted></feature>
            <threshold>-8.7669938802719116e-003</threshold>
            <left_node>1</left_node>
            <right_val>-7.7500087022781372e-001</right_val></_>
          <_>
            <!-- node 1 -->
            <feature>
              <rects>
                <_>
                  6 3 12 15 -1.</_>
                <_>
                  9 3 6 15 2.</_></rects>
              <tilted>0</tilted></feature>
            <threshold>-7.7076852321624756e-003</threshold>
            <left_val>-8.9787477254867554e-001</left_val>
            <right_val>6.2120610475540161e-001</right_val></_></_>
        <_>
          <!-- tree 3 -->
          <_>
            <!-- root node -->
            <feature>
              <rects>
                <_>
                  17 0 5 2 -1.</_>
                <_>
                  17 0 5 1 2.</_></rects>
              <tilted>1</tilted></feature>
            <threshold>-7.3424931615591049e-003</threshold>
            <left_val>6.0702639818191528e-001</left_val>
            <right_node>1</right_node></_>
          <_>
            <!-- node 1 -->
            <feature>
              <rects>
                <_>
                  2 19 3 2 -1.</_>
                <_>
                  2 19 3 1 2.</_></rects>
              <tilted>1</tilted></feature>
            <threshold>-9.7296675667166710e-003</threshold>
            <left_val>7.3630928993225098e-001</left_val>
            <right_val>-6.7606270313262939e-001</right_val></_></_>
        <_>
          <!-- tree 4 -->
          <_>
            <!-- root node -->
            <feature>
              <rects>
                <_>
                  16 13 3 4 -1.</_>
                <_>
                  16 15 3 2 2.</_></rects>
              <tilted>0</tilted></feature>
            <threshold>3.1850871164351702e-004</threshold>
            <left_node>1</left_node>
            <right_val>-9.5362049341201782e-001</right_val></_>
          <_>
            <!-- node 1 -->
            <feature>
              <rects>
                <_>
                  12 10 6 1 -1.</_>
                <_>
                  14 12 2 1 3.</_></rects>
              <tilted>1</tilted></feature>
            <threshold>1.0113749885931611e-003</threshold>
            <left_val>4.7650888562202454e-001</left_val>
            <right_val>-6.9855111837387085e-001</right_val></_></_></trees>
      <stage_threshold>-1.2667139768600464e+000</stage_threshold>
      <parent>6</parent>
      <next>-1</next></_>
    <_>
      <!-- stage 8 -->
      <trees>
        <_>
          <!-- tree 0 -->
          <_>
            <!-- root node -->
            <feature>
              <rects>
                <_>
                  12 13 12 7 -1.</_>
                <_>
                  15 13 6 7 2.</_></rects>
              <tilted>0</tilted></feature>
            <threshold>3.5486660897731781e-002</threshold>
            <left_val>-5.8557617664337158e-001</left_val>
            <right_node>1</right_node></_>
          <_>
            <!-- node 1 -->
            <feature>
              <rects>
                <_>
                  4 15 13 6 -1.</_>
                <_>
                  4 18 13 3 2.</_></rects>
              <tilted>0</tilted></feature>
            <threshold>-2.3656299337744713e-002</threshold>
            <left_val>8.0385148525238037e-001</left_val>
            <right_val>-7.2572487592697144e-001</right_val></_></_>
        <_>
          <!-- tree 1 -->
          <_>
            <!-- root node -->
            <feature>
              <rects>
                <_>
                  12 12 2 4 -1.</_>
                <_>
                  11 13 2 2 2.</_></rects>
              <tilted>1</tilted></feature>
            <threshold>-4.8480918630957603e-003</threshold>
            <left_node>1</left_node>
            <right_val>-6.0761487483978271e-001</right_val></_>
          <_>
            <!-- node 1 -->
            <feature>
              <rects>
                <_>
                  6 8 4 12 -1.</_>
                <_>
                  6 12 4 4 3.</_></rects>
              <tilted>0</tilted></feature>
            <threshold>2.2059900686144829e-002</threshold>
            <left_val>-7.3175168037414551e-001</left_val>
            <right_val>7.6142787933349609e-001</right_val></_></_>
        <_>
          <!-- tree 2 -->
          <_>
            <!-- root node -->
            <feature>
              <rects>
                <_>
                  2 3 20 4 -1.</_>
                <_>
                  7 3 10 4 2.</_></rects>
              <tilted>0</tilted></feature>
            <threshold>5.7369358837604523e-002</threshold>
            <left_val>-5.3946322202682495e-001</left_val>
            <right_node>1</right_node></_>
          <_>
            <!-- node 1 -->
            <feature>
              <rects>
                <_>
                  18 7 4 6 -1.</_>
                <_>
                  18 7 2 6 2.</_></rects>
              <tilted>1</tilted></feature>
            <threshold>-1.8522229511290789e-003</threshold>
            <left_val>7.5011789798736572e-001</left_val>
            <right_val>-6.1431360244750977e-001</right_val></_></_>
        <_>
          <!-- tree 3 -->
          <_>
            <!-- root node -->
            <feature>
              <rects>
                <_>
                  0 4 4 14 -1.</_>
                <_>
                  1 4 2 14 2.</_></rects>
              <tilted>0</tilted></feature>
            <threshold>-1.6480840742588043e-002</threshold>
            <left_val>7.8107500076293945e-001</left_val>
            <right_node>1</right_node></_>
          <_>
            <!-- node 1 -->
            <feature>
              <rects>
                <_>
                  20 5 4 19 -1.</_>
                <_>
                  21 5 2 19 2.</_></rects>
              <tilted>0</tilted></feature>
            <threshold>-2.0352929830551147e-002</threshold>
            <left_val>5.6005710363388062e-001</left_val>
            <right_val>-5.1938778162002563e-001</right_val></_></_>
        <_>
          <!-- tree 4 -->
          <_>
            <!-- root node -->
            <feature>
              <rects>
                <_>
                  7 13 6 1 -1.</_>
                <_>
                  9 13 2 1 3.</_></rects>
              <tilted>0</tilted></feature>
            <threshold>2.0692529506050050e-004</threshold>
            <left_node>1</left_node>
            <right_val>-8.4249097108840942e-001</right_val></_>
          <_>
            <!-- node 1 -->
            <feature>
              <rects>
                <_>
                  16 14 4 2 -1.</_>
                <_>
                  18 14 2 2 2.</_></rects>
              <tilted>0</tilted></feature>
            <threshold>7.9854228533804417e-004</threshold>
            <left_val>4.4494649767875671e-001</left_val>
            <right_val>-9.2955178022384644e-001</right_val></_></_>
        <_>
          <!-- tree 5 -->
          <_>
            <!-- root node -->
            <feature>
              <rects>
                <_>
                  5 9 8 2 -1.</_>
                <_>
                  7 9 4 2 2.</_></rects>
              <tilted>0</tilted></feature>
            <threshold>-4.6439669094979763e-003</threshold>
            <left_node>1</left_node>
            <right_val>-5.9631061553955078e-001</right_val></_>
          <_>
            <!-- node 1 -->
            <feature>
              <rects>
                <_>
                  9 8 12 3 -1.</_>
                <_>
                  13 8 4 3 3.</_></rects>
              <tilted>0</tilted></feature>
            <threshold>9.0220227139070630e-004</threshold>
            <left_val>6.0270398855209351e-001</left_val>
            <right_val>-6.3749128580093384e-001</right_val></_></_></trees>
      <stage_threshold>-1.5435270071029663e+000</stage_threshold>
      <parent>7</parent>
      <next>-1</next></_>
    <_>
      <!-- stage 9 -->
      <trees>
        <_>
          <!-- tree 0 -->
          <_>
            <!-- root node -->
            <feature>
              <rects>
                <_>
                  17 14 1 6 -1.</_>
                <_>
                  17 14 1 3 2.</_></rects>
              <tilted>1</tilted></feature>
            <threshold>9.4803981482982635e-003</threshold>
            <left_val>-7.1046209335327148e-001</left_val>
            <right_node>1</right_node></_>
          <_>
            <!-- node 1 -->
            <feature>
              <rects>
                <_>
                  5 12 15 6 -1.</_>
                <_>
                  10 14 5 2 9.</_></rects>
              <tilted>0</tilted></feature>
            <threshold>-2.4259999394416809e-002</threshold>
            <left_val>7.2195148468017578e-001</left_val>
            <right_val>-6.1435192823410034e-001</right_val></_></_>
        <_>
          <!-- tree 1 -->
          <_>
            <!-- root node -->
            <feature>
              <rects>
                <_>
                  19 1 5 6 -1.</_>
                <_>
                  17 3 5 2 3.</_></rects>
              <tilted>1</tilted></feature>
            <threshold>2.3711349815130234e-002</threshold>
            <left_val>-5.5208188295364380e-001</left_val>
            <right_node>1</right_node></_>
          <_>
            <!-- node 1 -->
            <feature>
              <rects>
                <_>
                  12 9 4 8 -1.</_>
                <_>
                  12 9 2 8 2.</_></rects>
              <tilted>1</tilted></feature>
            <threshold>1.5777579974383116e-003</threshold>
            <left_val>-7.3311609029769897e-001</left_val>
            <right_val>7.0356702804565430e-001</right_val></_></_>
        <_>
          <!-- tree 2 -->
          <_>
            <!-- root node -->
            <feature>
              <rects>
                <_>
                  6 13 2 4 -1.</_>
                <_>
                  7 13 1 4 2.</_></rects>
              <tilted>0</tilted></feature>
            <threshold>-1.2125539797125384e-004</threshold>
            <left_val>-8.5902160406112671e-001</left_val>
            <right_node>1</right_node></_>
          <_>
            <!-- node 1 -->
            <feature>
              <rects>
                <_>
                  13 5 3 12 -1.</_>
                <_>
                  13 11 3 6 2.</_></rects>
              <tilted>0</tilted></feature>
            <threshold>6.0795238823629916e-005</threshold>
            <left_val>-8.3718317747116089e-001</left_val>
            <right_val>4.8268610239028931e-001</right_val></_></_>
        <_>
          <!-- tree 3 -->
          <_>
            <!-- root node -->
            <feature>
              <rects>
                <_>
                  20 3 4 11 -1.</_>
                <_>
                  21 3 2 11 2.</_></rects>
              <tilted>0</tilted></feature>
            <threshold>-1.2085139751434326e-002</threshold>
            <left_val>5.7385617494583130e-001</left_val>
            <right_node>1</right_node></_>
          <_>
            <!-- node 1 -->
            <feature>
              <rects>
                <_>
                  2 19 3 2 -1.</_>
                <_>
                  2 19 3 1 2.</_></rects>
              <tilted>1</tilted></feature>
            <threshold>-7.7104568481445313e-003</threshold>
            <left_val>4.7537389397621155e-001</left_val>
            <right_val>-5.8388012647628784e-001</right_val></_></_>
        <_>
          <!-- tree 4 -->
          <_>
            <!-- root node -->
            <feature>
              <rects>
                <_>
                  1 11 6 4 -1.</_>
                <_>
                  4 11 3 4 2.</_></rects>
              <tilted>0</tilted></feature>
            <threshold>1.0792720131576061e-002</threshold>
            <left_val>-6.6789472103118896e-001</left_val>
            <right_node>1</right_node></_>
          <_>
            <!-- node 1 -->
            <feature>
              <rects>
                <_>
                  11 10 4 4 -1.</_>
                <_>
                  13 10 2 4 2.</_></rects>
              <tilted>0</tilted></feature>
            <threshold>1.1200139852007851e-005</threshold>
            <left_val>4.2551138997077942e-001</left_val>
            <right_val>-8.9023941755294800e-001</right_val></_></_></trees>
      <stage_threshold>-2.0316329002380371e+000</stage_threshold>
      <parent>8</parent>
      <next>-1</next></_>
    <_>
      <!-- stage 10 -->
      <trees>
        <_>
          <!-- tree 0 -->
          <_>
            <!-- root node -->
            <feature>
              <rects>
                <_>
                  6 9 11 12 -1.</_>
                <_>
                  6 12 11 6 2.</_></rects>
              <tilted>0</tilted></feature>
            <threshold>5.4242420941591263e-002</threshold>
            <left_val>-7.1319162845611572e-001</left_val>
            <right_node>1</right_node></_>
          <_>
            <!-- node 1 -->
            <feature>
              <rects>
                <_>
                  9 10 5 6 -1.</_>
                <_>
                  9 13 5 3 2.</_></rects>
              <tilted>0</tilted></feature>
            <threshold>-1.8091199453920126e-003</threshold>
            <left_val>6.4466220140457153e-001</left_val>
            <right_val>-7.2113662958145142e-001</right_val></_></_>
        <_>
          <!-- tree 1 -->
          <_>
            <!-- root node -->
            <feature>
              <rects>
                <_>
                  8 0 6 6 -1.</_>
                <_>
                  10 2 2 6 3.</_></rects>
              <tilted>1</tilted></feature>
            <threshold>1.5171250328421593e-002</threshold>
            <left_val>-5.5164760351181030e-001</left_val>
            <right_node>1</right_node></_>
          <_>
            <!-- node 1 -->
            <feature>
              <rects>
                <_>
                  13 5 8 10 -1.</_>
                <_>
                  13 5 8 5 2.</_></rects>
              <tilted>1</tilted></feature>
            <threshold>2.0845010876655579e-002</threshold>
            <left_val>-5.6830239295959473e-001</left_val>
            <right_val>6.2471252679824829e-001</right_val></_></_>
        <_>
          <!-- tree 2 -->
          <_>
            <!-- root node -->
            <feature>
              <rects>
                <_>
                  19 9 4 4 -1.</_>
                <_>
                  21 9 2 4 2.</_></rects>
              <tilted>0</tilted></feature>
            <threshold>-5.4312730208039284e-003</threshold>
            <left_node>1</left_node>
            <right_val>-5.7826268672943115e-001</right_val></_>
          <_>
            <!-- node 1 -->
            <feature>
              <rects>
                <_>
                  12 10 1 3 -1.</_>
                <_>
                  11 11 1 1 3.</_></rects>
              <tilted>1</tilted></feature>
            <threshold>2.2478739992948249e-005</threshold>
            <left_val>6.2380117177963257e-001</left_val>
            <right_val>-4.8533070087432861e-001</right_val></_></_>
        <_>
          <!-- tree 3 -->
          <_>
            <!-- root node -->
            <feature>
              <rects>
                <_>
                  9 10 6 4 -1.</_>
                <_>
                  9 12 6 2 2.</_></rects>
              <tilted>0</tilted></feature>
            <threshold>-1.8700930522754788e-003</threshold>
            <left_val>-9.3850618600845337e-001</left_val>
            <right_node>1</right_node></_>
          <_>
            <!-- node 1 -->
            <feature>
              <rects>
                <_>
                  13 10 2 1 -1.</_>
                <_>
                  13 10 1 1 2.</_></rects>
              <tilted>1</tilted></feature>
            <threshold>-2.2532850562129170e-004</threshold>
            <left_val>-8.2673817873001099e-001</left_val>
            <right_val>4.1385179758071899e-001</right_val></_></_>
        <_>
          <!-- tree 4 -->
          <_>
            <!-- root node -->
            <feature>
              <rects>
                <_>
                  0 2 2 21 -1.</_>
                <_>
                  1 2 1 21 2.</_></rects>
              <tilted>0</tilted></feature>
            <threshold>-1.4701539650559425e-002</threshold>
            <left_val>6.0761868953704834e-001</left_val>
            <right_node>1</right_node></_>
          <_>
            <!-- node 1 -->
            <feature>
              <rects>
                <_>
                  13 16 4 3 -1.</_>
                <_>
                  14 17 2 3 2.</_></rects>
              <tilted>1</tilted></feature>
            <threshold>-1.0232320055365562e-002</threshold>
            <left_val>4.4307258725166321e-001</left_val>
            <right_val>-5.2353638410568237e-001</right_val></_></_>
        <_>
          <!-- tree 5 -->
          <_>
            <!-- root node -->
            <feature>
              <rects>
                <_>
                  6 12 10 2 -1.</_>
                <_>
                  11 12 5 2 2.</_></rects>
              <tilted>0</tilted></feature>
            <threshold>-1.1328950058668852e-003</threshold>
            <left_val>-8.8394808769226074e-001</left_val>
            <right_node>1</right_node></_>
          <_>
            <!-- node 1 -->
            <feature>
              <rects>
                <_>
                  3 14 6 9 -1.</_>
                <_>
                  3 17 6 3 3.</_></rects>
              <tilted>0</tilted></feature>
            <threshold>5.2884328179061413e-003</threshold>
            <left_val>4.0360850095748901e-001</left_val>
            <right_val>-5.7435917854309082e-001</right_val></_></_></trees>
      <stage_threshold>-1.6586129665374756e+000</stage_threshold>
      <parent>9</parent>
      <next>-1</next></_>
    <_>
      <!-- stage 11 -->
      <trees>
        <_>
          <!-- tree 0 -->
          <_>
            <!-- root node -->
            <feature>
              <rects>
                <_>
                  2 4 21 2 -1.</_>
                <_>
                  9 4 7 2 3.</_></rects>
              <tilted>0</tilted></feature>
            <threshold>4.6164810657501221e-002</threshold>
            <left_val>-6.2840598821640015e-001</left_val>
            <right_node>1</right_node></_>
          <_>
            <!-- node 1 -->
            <feature>
              <rects>
                <_>
                  6 13 12 3 -1.</_>
                <_>
                  9 13 6 3 2.</_></rects>
              <tilted>0</tilted></feature>
            <threshold>-8.5743609815835953e-003</threshold>
            <left_val>8.2500022649765015e-001</left_val>
            <right_val>-3.3544251322746277e-001</right_val></_></_>
        <_>
          <!-- tree 1 -->
          <_>
            <!-- root node -->
            <feature>
              <rects>
                <_>
                  11 10 1 2 -1.</_>
                <_>
                  11 10 1 1 2.</_></rects>
              <tilted>1</tilted></feature>
            <threshold>2.6864230676437728e-005</threshold>
            <left_node>1</left_node>
            <right_val>-7.5980687141418457e-001</right_val></_>
          <_>
            <!-- node 1 -->
            <feature>
              <rects>
                <_>
                  9 9 12 5 -1.</_>
                <_>
                  13 9 4 5 3.</_></rects>
              <tilted>0</tilted></feature>
            <threshold>1.1229200288653374e-002</threshold>
            <left_val>6.3206332921981812e-001</left_val>
            <right_val>-8.1102210283279419e-001</right_val></_></_>
        <_>
          <!-- tree 2 -->
          <_>
            <!-- root node -->
            <feature>
              <rects>
                <_>
                  4 9 4 10 -1.</_>
                <_>
                  4 9 2 5 2.</_>
                <_>
                  6 14 2 5 2.</_></rects>
              <tilted>0</tilted></feature>
            <threshold>4.9232752062380314e-003</threshold>
            <left_val>-5.6920921802520752e-001</left_val>
            <right_node>1</right_node></_>
          <_>
            <!-- node 1 -->
            <feature>
              <rects>
                <_>
                  21 7 3 2 -1.</_>
                <_>
                  21 7 3 1 2.</_></rects>
              <tilted>1</tilted></feature>
            <threshold>-3.2676090486347675e-003</threshold>
            <left_val>7.4954360723495483e-001</left_val>
            <right_val>-3.3007898926734924e-001</right_val></_></_>
        <_>
          <!-- tree 3 -->
          <_>
            <!-- root node -->
            <feature>
              <rects>
                <_>
                  8 11 12 2 -1.</_>
                <_>
                  12 11 4 2 3.</_></rects>
              <tilted>0</tilted></feature>
            <threshold>-1.0517960181459785e-003</threshold>
            <left_val>-8.0073428153991699e-001</left_val>
            <right_node>1</right_node></_>
          <_>
            <!-- node 1 -->
            <feature>
              <rects>
                <_>
                  13 9 4 3 -1.</_>
                <_>
                  13 9 2 3 2.</_></rects>
              <tilted>1</tilted></feature>
            <threshold>-8.9446821948513389e-004</threshold>
            <left_val>-6.9579339027404785e-001</left_val>
            <right_val>5.1685059070587158e-001</right_val></_></_>
        <_>
          <!-- tree 4 -->
          <_>
            <!-- root node -->
            <feature>
              <rects>
                <_>
                  6 7 12 7 -1.</_>
                <_>
                  12 7 6 7 2.</_></rects>
              <tilted>0</tilted></feature>
            <threshold>-5.1213381811976433e-003</threshold>
            <left_val>-7.4925720691680908e-001</left_val>
            <right_node>1</right_node></_>
          <_>
            <!-- node 1 -->
            <feature>
              <rects>
                <_>
                  11 13 4 1 -1.</_>
                <_>
                  13 13 2 1 2.</_></rects>
              <tilted>0</tilted></feature>
            <threshold>2.5026809453265741e-005</threshold>
            <left_val>4.3891969323158264e-001</left_val>
            <right_val>-6.3899457454681396e-001</right_val></_></_></trees>
      <stage_threshold>-1.7611509561538696e+000</stage_threshold>
      <parent>10</parent>
      <next>-1</next></_>
    <_>
      <!-- stage 12 -->
      <trees>
        <_>
          <!-- tree 0 -->
          <_>
            <!-- root node -->
            <feature>
              <rects>
                <_>
                  8 0 2 3 -1.</_>
                <_>
                  8 0 1 3 2.</_></rects>
              <tilted>1</tilted></feature>
            <threshold>-4.2045628651976585e-003</threshold>
            <left_node>1</left_node>
            <right_val>-4.6855539083480835e-001</right_val></_>
          <_>
            <!-- node 1 -->
            <feature>
              <rects>
                <_>
                  15 2 8 14 -1.</_>
                <_>
                  19 2 4 14 2.</_></rects>
              <tilted>0</tilted></feature>
            <threshold>-4.2756889015436172e-002</threshold>
            <left_val>8.1796717643737793e-001</left_val>
            <right_val>-2.9262539744377136e-001</right_val></_></_>
        <_>
          <!-- tree 1 -->
          <_>
            <!-- root node -->
            <feature>
              <rects>
                <_>
                  20 1 4 14 -1.</_>
                <_>
                  20 1 2 7 2.</_>
                <_>
                  22 8 2 7 2.</_></rects>
              <tilted>0</tilted></feature>
            <threshold>-2.1007379516959190e-002</threshold>
            <left_val>6.9623911380767822e-001</left_val>
            <right_node>1</right_node></_>
          <_>
            <!-- node 1 -->
            <feature>
              <rects>
                <_>
                  20 9 3 2 -1.</_>
                <_>
                  21 9 1 2 3.</_></rects>
              <tilted>0</tilted></feature>
            <threshold>-5.1958868280053139e-003</threshold>
            <left_val>7.5920808315277100e-001</left_val>
            <right_val>-4.5734560489654541e-001</right_val></_></_>
        <_>
          <!-- tree 2 -->
          <_>
            <!-- root node -->
            <feature>
              <rects>
                <_>
                  1 12 12 4 -1.</_>
                <_>
                  5 12 4 4 3.</_></rects>
              <tilted>0</tilted></feature>
            <threshold>2.4722279980778694e-002</threshold>
            <left_val>-5.8668178319931030e-001</left_val>
            <right_node>1</right_node></_>
          <_>
            <!-- node 1 -->
            <feature>
              <rects>
                <_>
                  7 5 11 6 -1.</_>
                <_>
                  7 5 11 3 2.</_></rects>
              <tilted>1</tilted></feature>
            <threshold>-5.0013479776680470e-003</threshold>
            <left_val>-5.6116551160812378e-001</left_val>
            <right_val>6.1472022533416748e-001</right_val></_></_>
        <_>
          <!-- tree 3 -->
          <_>
            <!-- root node -->
            <feature>
              <rects>
                <_>
                  8 6 7 8 -1.</_>
                <_>
                  8 8 7 4 2.</_></rects>
              <tilted>0</tilted></feature>
            <threshold>-3.7619259092025459e-004</threshold>
            <left_node>1</left_node>
            <right_val>-8.5347431898117065e-001</right_val></_>
          <_>
            <!-- node 1 -->
            <feature>
              <rects>
                <_>
                  12 9 2 4 -1.</_>
                <_>
                  12 9 2 2 2.</_></rects>
              <tilted>1</tilted></feature>
            <threshold>-2.1610250696539879e-003</threshold>
            <left_val>-8.1215667724609375e-001</left_val>
            <right_val>4.0871548652648926e-001</right_val></_></_>
        <_>
          <!-- tree 4 -->
          <_>
            <!-- root node -->
            <feature>
              <rects>
                <_>
                  7 11 4 2 -1.</_>
                <_>
                  8 11 2 2 2.</_></rects>
              <tilted>0</tilted></feature>
            <threshold>-8.8581227464601398e-004</threshold>
            <left_val>-7.3611682653427124e-001</left_val>
            <right_node>1</right_node></_>
          <_>
            <!-- node 1 -->
            <feature>
              <rects>
                <_>
                  16 14 2 3 -1.</_>
                <_>
                  17 14 1 3 2.</_></rects>
              <tilted>0</tilted></feature>
            <threshold>2.6409880956634879e-004</threshold>
            <left_val>3.4491941332817078e-001</left_val>
            <right_val>-6.4970797300338745e-001</right_val></_></_>
        <_>
          <!-- tree 5 -->
          <_>
            <!-- root node -->
            <feature>
              <rects>
                <_>
                  0 11 19 4 -1.</_>
                <_>
                  0 13 19 2 2.</_></rects>
              <tilted>0</tilted></feature>
            <threshold>-1.3600359670817852e-002</threshold>
            <left_val>-7.8764647245407104e-001</left_val>
            <right_node>1</right_node></_>
          <_>
            <!-- node 1 -->
            <feature>
              <rects>
                <_>
                  3 7 16 9 -1.</_>
                <_>
                  3 10 16 3 3.</_></rects>
              <tilted>0</tilted></feature>
            <threshold>-6.6715250723063946e-003</threshold>
            <left_val>-8.7533289194107056e-001</left_val>
            <right_val>3.6328399181365967e-001</right_val></_></_></trees>
      <stage_threshold>-1.6087650060653687e+000</stage_threshold>
      <parent>11</parent>
      <next>-1</next></_>
    <_>
      <!-- stage 13 -->
      <trees>
        <_>
          <!-- tree 0 -->
          <_>
            <!-- root node -->
            <feature>
              <rects>
                <_>
                  7 14 7 8 -1.</_>
                <_>
                  7 18 7 4 2.</_></rects>
              <tilted>0</tilted></feature>
            <threshold>-2.9754329472780228e-002</threshold>
            <left_node>1</left_node>
            <right_val>-5.2900058031082153e-001</right_val></_>
          <_>
            <!-- node 1 -->
            <feature>
              <rects>
                <_>
                  2 1 21 9 -1.</_>
                <_>
                  9 4 7 3 9.</_></rects>
              <tilted>0</tilted></feature>
            <threshold>2.1290449798107147e-001</threshold>
            <left_val>-4.0807369351387024e-001</left_val>
            <right_val>6.9528681039810181e-001</right_val></_></_>
        <_>
          <!-- tree 1 -->
          <_>
            <!-- root node -->
            <feature>
              <rects>
                <_>
                  4 19 1 4 -1.</_>
                <_>
                  4 19 1 2 2.</_></rects>
              <tilted>1</tilted></feature>
            <threshold>-5.6961658410727978e-003</threshold>
            <left_val>6.5118807554244995e-001</left_val>
            <right_node>1</right_node></_>
          <_>
            <!-- node 1 -->
            <feature>
              <rects>
                <_>
                  10 15 3 4 -1.</_>
                <_>
                  10 16 3 2 2.</_></rects>
              <tilted>0</tilted></feature>
            <threshold>3.8670978974550962e-003</threshold>
            <left_val>-6.7232882976531982e-001</left_val>
            <right_val>1.2697720527648926e-001</right_val></_></_>
        <_>
          <!-- tree 2 -->
          <_>
            <!-- root node -->
            <feature>
              <rects>
                <_>
                  17 5 2 9 -1.</_>
                <_>
                  14 8 2 3 3.</_></rects>
              <tilted>1</tilted></feature>
            <threshold>5.8201962383463979e-004</threshold>
            <left_val>-7.6286172866821289e-001</left_val>
            <right_node>1</right_node></_>
          <_>
            <!-- node 1 -->
            <feature>
              <rects>
                <_>
                  18 1 6 6 -1.</_>
                <_>
                  16 3 6 2 3.</_></rects>
              <tilted>1</tilted></feature>
            <threshold>7.1310759522020817e-003</threshold>
            <left_val>-4.9398189783096313e-001</left_val>
            <right_val>4.7677528858184814e-001</right_val></_></_>
        <_>
          <!-- tree 3 -->
          <_>
            <!-- root node -->
            <feature>
              <rects>
                <_>
                  9 0 6 7 -1.</_>
                <_>
                  11 2 2 7 3.</_></rects>
              <tilted>1</tilted></feature>
            <threshold>-7.7129742130637169e-003</threshold>
            <left_val>-6.6931682825088501e-001</left_val>
            <right_node>1</right_node></_>
          <_>
            <!-- node 1 -->
            <feature>
              <rects>
                <_>
                  9 6 4 7 -1.</_>
                <_>
                  9 6 2 7 2.</_></rects>
              <tilted>1</tilted></feature>
            <threshold>-1.7274430021643639e-002</threshold>
            <left_val>3.8727650046348572e-001</left_val>
            <right_val>-6.6930979490280151e-001</right_val></_></_>
        <_>
          <!-- tree 4 -->
          <_>
            <!-- root node -->
            <feature>
              <rects>
                <_>
                  15 13 6 2 -1.</_>
                <_>
                  18 13 3 2 2.</_></rects>
              <tilted>0</tilted></feature>
            <threshold>7.4339169077575207e-004</threshold>
            <left_node>1</left_node>
            <right_val>-8.4401541948318481e-001</right_val></_>
          <_>
            <!-- node 1 -->
            <feature>
              <rects>
                <_>
                  6 17 18 5 -1.</_>
                <_>
                  15 17 9 5 2.</_></rects>
              <tilted>0</tilted></feature>
            <threshold>-2.6399610564112663e-002</threshold>
            <left_val>-5.4157769680023193e-001</left_val>
            <right_val>3.9518329501152039e-001</right_val></_></_>
        <_>
          <!-- tree 5 -->
          <_>
            <!-- root node -->
            <feature>
              <rects>
                <_>
                  20 3 4 12 -1.</_>
                <_>
                  21 3 2 12 2.</_></rects>
              <tilted>0</tilted></feature>
            <threshold>-8.0418074503540993e-003</threshold>
            <left_val>3.4436568617820740e-001</left_val>
            <right_node>1</right_node></_>
          <_>
            <!-- node 1 -->
            <feature>
              <rects>
                <_>
                  8 18 12 2 -1.</_>
                <_>
                  11 18 6 2 2.</_></rects>
              <tilted>0</tilted></feature>
            <threshold>-1.8226370215415955e-002</threshold>
            <left_val>5.7225710153579712e-001</left_val>
            <right_val>-5.7714098691940308e-001</right_val></_></_>
        <_>
          <!-- tree 6 -->
          <_>
            <!-- root node -->
            <feature>
              <rects>
                <_>
                  17 14 3 2 -1.</_>
                <_>
                  17 15 3 1 2.</_></rects>
              <tilted>0</tilted></feature>
            <threshold>2.6782669010572135e-004</threshold>
            <left_node>1</left_node>
            <right_val>-8.2882881164550781e-001</right_val></_>
          <_>
            <!-- node 1 -->
            <feature>
              <rects>
                <_>
                  2 23 4 1 -1.</_>
                <_>
                  4 23 2 1 2.</_></rects>
              <tilted>0</tilted></feature>
            <threshold>7.2794937295839190e-004</threshold>
            <left_val>3.7842911481857300e-001</left_val>
            <right_val>-3.8688370585441589e-001</right_val></_></_>
        <_>
          <!-- tree 7 -->
          <_>
            <!-- root node -->
            <feature>
              <rects>
                <_>
                  14 7 1 8 -1.</_>
                <_>
                  14 7 1 4 2.</_></rects>
              <tilted>1</tilted></feature>
            <threshold>1.4043559785932302e-003</threshold>
            <left_node>1</left_node>
            <right_val>-8.2545930147171021e-001</right_val></_>
          <_>
            <!-- node 1 -->
            <feature>
              <rects>
                <_>
                  3 10 16 4 -1.</_>
                <_>
                  3 11 16 2 2.</_></rects>
              <tilted>0</tilted></feature>
            <threshold>2.2041879594326019e-002</threshold>
            <left_val>3.5259279608726501e-001</left_val>
            <right_val>-5.6363642215728760e-001</right_val></_></_></trees>
      <stage_threshold>-1.7475680112838745e+000</stage_threshold>
      <parent>12</parent>
      <next>-1</next></_>
    <_>
      <!-- stage 14 -->
      <trees>
        <_>
          <!-- tree 0 -->
          <_>
            <!-- root node -->
            <feature>
              <rects>
                <_>
                  11 6 2 16 -1.</_>
                <_>
                  11 14 2 8 2.</_></rects>
              <tilted>0</tilted></feature>
            <threshold>-2.8050970286130905e-002</threshold>
            <left_node>1</left_node>
            <right_val>-5.9059351682662964e-001</right_val></_>
          <_>
            <!-- node 1 -->
            <feature>
              <rects>
                <_>
                  7 6 4 12 -1.</_>
                <_>
                  7 12 4 6 2.</_></rects>
              <tilted>0</tilted></feature>
            <threshold>4.0970728732645512e-003</threshold>
            <left_val>-8.2113307714462280e-001</left_val>
            <right_val>6.3407337665557861e-001</right_val></_></_>
        <_>
          <!-- tree 1 -->
          <_>
            <!-- root node -->
            <feature>
              <rects>
                <_>
                  9 11 3 3 -1.</_>
                <_>
                  10 12 1 1 9.</_></rects>
              <tilted>0</tilted></feature>
            <threshold>1.2187310494482517e-003</threshold>
            <left_node>1</left_node>
            <right_val>-7.2622877359390259e-001</right_val></_>
          <_>
            <!-- node 1 -->
            <feature>
              <rects>
                <_>
                  14 4 4 12 -1.</_>
                <_>
                  14 4 4 6 2.</_></rects>
              <tilted>1</tilted></feature>
            <threshold>-1.5770569443702698e-002</threshold>
            <left_val>-5.2490907907485962e-001</left_val>
            <right_val>4.8044019937515259e-001</right_val></_></_>
        <_>
          <!-- tree 2 -->
          <_>
            <!-- root node -->
            <feature>
              <rects>
                <_>
                  7 0 10 6 -1.</_>
                <_>
                  7 2 10 2 3.</_></rects>
              <tilted>0</tilted></feature>
            <threshold>2.3088060319423676e-002</threshold>
            <left_node>1</left_node>
            <right_val>5.5814409255981445e-001</right_val></_>
          <_>
            <!-- node 1 -->
            <feature>
              <rects>
                <_>
                  4 0 2 4 -1.</_>
                <_>
                  4 0 1 4 2.</_></rects>
              <tilted>1</tilted></feature>
            <threshold>1.1091739870607853e-002</threshold>
            <left_val>-4.6981179714202881e-001</left_val>
            <right_val>7.3076301813125610e-001</right_val></_></_>
        <_>
          <!-- tree 3 -->
          <_>
            <!-- root node -->
            <feature>
              <rects>
                <_>
                  2 7 2 8 -1.</_>
                <_>
                  3 7 1 8 2.</_></rects>
              <tilted>0</tilted></feature>
            <threshold>9.5174042508006096e-003</threshold>
            <left_node>1</left_node>
            <right_val>6.4158761501312256e-001</right_val></_>
          <_>
            <!-- node 1 -->
            <feature>
              <rects>
                <_>
                  0 16 2 2 -1.</_>
                <_>
                  1 16 1 2 2.</_></rects>
              <tilted>0</tilted></feature>
            <threshold>-5.2362349815666676e-003</threshold>
            <left_val>8.2622969150543213e-001</left_val>
            <right_val>-3.6846551299095154e-001</right_val></_></_>
        <_>
          <!-- tree 4 -->
          <_>
            <!-- root node -->
            <feature>
              <rects>
                <_>
                  14 10 2 1 -1.</_>
                <_>
                  14 10 1 1 2.</_></rects>
              <tilted>1</tilted></feature>
            <threshold>8.7204028386622667e-004</threshold>
            <left_node>1</left_node>
            <right_val>-8.1052732467651367e-001</right_val></_>
          <_>
            <!-- node 1 -->
            <feature>
              <rects>
                <_>
                  6 14 18 4 -1.</_>
                <_>
                  6 14 9 2 2.</_>
                <_>
                  15 16 9 2 2.</_></rects>
              <tilted>0</tilted></feature>
            <threshold>6.2224040739238262e-003</threshold>
            <left_val>3.6054781079292297e-001</left_val>
            <right_val>-5.6721949577331543e-001</right_val></_></_>
        <_>
          <!-- tree 5 -->
          <_>
            <!-- root node -->
            <feature>
              <rects>
                <_>
                  4 15 4 6 -1.</_>
                <_>
                  4 17 4 2 3.</_></rects>
              <tilted>0</tilted></feature>
            <threshold>3.7604749668389559e-003</threshold>
            <left_node>1</left_node>
            <right_val>-7.1189427375793457e-001</right_val></_>
          <_>
            <!-- node 1 -->
            <feature>
              <rects>
                <_>
                  11 6 4 9 -1.</_>
                <_>
                  11 6 2 9 2.</_></rects>
              <tilted>1</tilted></feature>
            <threshold>-1.3517440296709538e-002</threshold>
            <left_val>3.2650029659271240e-001</left_val>
            <right_val>-7.5377118587493896e-001</right_val></_></_>
        <_>
          <!-- tree 6 -->
          <_>
            <!-- root node -->
            <feature>
              <rects>
                <_>
                  11 9 2 3 -1.</_>
                <_>
                  11 10 2 1 3.</_></rects>
              <tilted>0</tilted></feature>
            <threshold>-8.3178508793935180e-004</threshold>
            <left_val>-8.3595502376556396e-001</left_val>
            <right_node>1</right_node></_>
          <_>
            <!-- node 1 -->
            <feature>
              <rects>
                <_>
                  6 9 14 4 -1.</_>
                <_>
                  6 10 14 2 2.</_></rects>
              <tilted>0</tilted></feature>
            <threshold>1.7125900834798813e-002</threshold>
            <left_val>2.9605439305305481e-001</left_val>
            <right_val>-7.2823131084442139e-001</right_val></_></_></trees>
      <stage_threshold>-1.8984450101852417e+000</stage_threshold>
      <parent>13</parent>
      <next>-1</next></_>
    <_>
      <!-- stage 15 -->
      <trees>
        <_>
          <!-- tree 0 -->
          <_>
            <!-- root node -->
            <feature>
              <rects>
                <_>
                  9 12 6 6 -1.</_>
                <_>
                  9 14 6 2 3.</_></rects>
              <tilted>0</tilted></feature>
            <threshold>-1.6666119918227196e-002</threshold>
            <left_node>1</left_node>
            <right_val>-5.3884571790695190e-001</right_val></_>
          <_>
            <!-- node 1 -->
            <feature>
              <rects>
                <_>
                  12 4 10 10 -1.</_>
                <_>
                  12 4 10 5 2.</_></rects>
              <tilted>1</tilted></feature>
            <threshold>3.8145851343870163e-002</threshold>
            <left_val>-5.5440527200698853e-001</left_val>
            <right_val>7.3123002052307129e-001</right_val></_></_>
        <_>
          <!-- tree 1 -->
          <_>
            <!-- root node -->
            <feature>
              <rects>
                <_>
                  6 2 16 20 -1.</_>
                <_>
                  6 2 8 10 2.</_>
                <_>
                  14 12 8 10 2.</_></rects>
              <tilted>0</tilted></feature>
            <threshold>4.9922250211238861e-002</threshold>
            <left_val>-5.5279421806335449e-001</left_val>
            <right_node>1</right_node></_>
          <_>
            <!-- node 1 -->
            <feature>
              <rects>
                <_>
                  10 8 12 2 -1.</_>
                <_>
                  16 8 6 2 2.</_></rects>
              <tilted>0</tilted></feature>
            <threshold>-1.6403939574956894e-002</threshold>
            <left_val>-4.4184330105781555e-001</left_val>
            <right_val>6.3695538043975830e-001</right_val></_></_>
        <_>
          <!-- tree 2 -->
          <_>
            <!-- root node -->
            <feature>
              <rects>
                <_>
                  5 0 9 3 -1.</_>
                <_>
                  8 1 3 1 9.</_></rects>
              <tilted>0</tilted></feature>
            <threshold>1.3964249752461910e-002</threshold>
            <left_node>1</left_node>
            <right_val>5.3971207141876221e-001</right_val></_>
          <_>
            <!-- node 1 -->
            <feature>
              <rects>
                <_>
                  0 0 12 3 -1.</_>
                <_>
                  4 1 4 1 9.</_></rects>
              <tilted>0</tilted></feature>
            <threshold>-4.5000281184911728e-002</threshold>
            <left_val>6.4361280202865601e-001</left_val>
            <right_val>-4.5773181319236755e-001</right_val></_></_>
        <_>
          <!-- tree 3 -->
          <_>
            <!-- root node -->
            <feature>
              <rects>
                <_>
                  8 9 3 6 -1.</_>
                <_>
                  9 11 1 2 9.</_></rects>
              <tilted>0</tilted></feature>
            <threshold>-9.7796251066029072e-004</threshold>
            <left_val>-8.7500417232513428e-001</left_val>
            <right_node>1</right_node></_>
          <_>
            <!-- node 1 -->
            <feature>
              <rects>
                <_>
                  10 12 1 4 -1.</_>
                <_>
                  9 13 1 2 2.</_></rects>
              <tilted>1</tilted></feature>
            <threshold>-1.2913779755763244e-005</threshold>
            <left_val>-7.8243792057037354e-001</left_val>
            <right_val>3.6172530055046082e-001</right_val></_></_>
        <_>
          <!-- tree 4 -->
          <_>
            <!-- root node -->
            <feature>
              <rects>
                <_>
                  0 3 2 16 -1.</_>
                <_>
                  0 3 1 8 2.</_>
                <_>
                  1 11 1 8 2.</_></rects>
              <tilted>0</tilted></feature>
            <threshold>1.0653479956090450e-002</threshold>
            <left_node>1</left_node>
            <right_val>7.5284951925277710e-001</right_val></_>
          <_>
            <!-- node 1 -->
            <feature>
              <rects>
                <_>
                  0 2 2 18 -1.</_>
                <_>
                  0 2 1 9 2.</_>
                <_>
                  1 11 1 9 2.</_></rects>
              <tilted>0</tilted></feature>
            <threshold>-1.1289370246231556e-002</threshold>
            <left_val>5.8723300695419312e-001</left_val>
            <right_val>-4.5036530494689941e-001</right_val></_></_>
        <_>
          <!-- tree 5 -->
          <_>
            <!-- root node -->
            <feature>
              <rects>
                <_>
                  5 10 14 6 -1.</_>
                <_>
                  5 13 14 3 2.</_></rects>
              <tilted>0</tilted></feature>
            <threshold>-1.1182280257344246e-002</threshold>
            <left_val>-7.5811791419982910e-001</left_val>
            <right_node>1</right_node></_>
          <_>
            <!-- node 1 -->
            <feature>
              <rects>
                <_>
                  0 7 21 8 -1.</_>
                <_>
                  0 9 21 4 2.</_></rects>
              <tilted>0</tilted></feature>
            <threshold>-3.2972030341625214e-002</threshold>
            <left_val>-8.0805951356887817e-001</left_val>
            <right_val>3.9962410926818848e-001</right_val></_></_></trees>
      <stage_threshold>-1.2975219488143921e+000</stage_threshold>
      <parent>14</parent>
      <next>-1</next></_>
    <_>
      <!-- stage 16 -->
      <trees>
        <_>
          <!-- tree 0 -->
          <_>
            <!-- root node -->
            <feature>
              <rects>
                <_>
                  3 14 18 9 -1.</_>
                <_>
                  9 14 6 9 3.</_></rects>
              <tilted>0</tilted></feature>
            <threshold>2.7629530057311058e-002</threshold>
            <left_node>1</left_node>
            <right_val>-7.5740998983383179e-001</right_val></_>
          <_>
            <!-- node 1 -->
            <feature>
              <rects>
                <_>
                  1 16 14 2 -1.</_>
                <_>
                  8 16 7 2 2.</_></rects>
              <tilted>0</tilted></feature>
            <threshold>3.6441299598664045e-003</threshold>
            <left_val>-5.9745711088180542e-001</left_val>
            <right_val>6.0027617216110229e-001</right_val></_></_>
        <_>
          <!-- tree 1 -->
          <_>
            <!-- root node -->
            <feature>
              <rects>
                <_>
                  8 10 8 6 -1.</_>
                <_>
                  8 13 8 3 2.</_></rects>
              <tilted>0</tilted></feature>
            <threshold>-2.6752080884762108e-005</threshold>
            <left_node>1</left_node>
            <right_val>-6.3181352615356445e-001</right_val></_>
          <_>
            <!-- node 1 -->
            <feature>
              <rects>
                <_>
                  4 8 20 6 -1.</_>
                <_>
                  4 10 20 2 3.</_></rects>
              <tilted>0</tilted></feature>
            <threshold>3.6727648228406906e-002</threshold>
            <left_val>4.5228341221809387e-001</left_val>
            <right_val>-6.5202158689498901e-001</right_val></_></_>
        <_>
          <!-- tree 2 -->
          <_>
            <!-- root node -->
            <feature>
              <rects>
                <_>
                  7 3 16 11 -1.</_>
                <_>
                  15 3 8 11 2.</_></rects>
              <tilted>0</tilted></feature>
            <threshold>-7.2321509942412376e-003</threshold>
            <left_node>1</left_node>
            <right_val>-8.3831942081451416e-001</right_val></_>
          <_>
            <!-- node 1 -->
            <feature>
              <rects>
                <_>
                  4 3 20 19 -1.</_>
                <_>
                  9 3 10 19 2.</_></rects>
              <tilted>0</tilted></feature>
            <threshold>3.1338489055633545e-001</threshold>
            <left_val>3.4253039956092834e-001</left_val>
            <right_val>-8.2647979259490967e-001</right_val></_></_>
        <_>
          <!-- tree 3 -->
          <_>
            <!-- root node -->
            <feature>
              <rects>
                <_>
                  12 11 3 3 -1.</_>
                <_>
                  13 12 1 1 9.</_></rects>
              <tilted>0</tilted></feature>
            <threshold>1.4984000008553267e-003</threshold>
            <left_node>1</left_node>
            <right_val>-6.8227320909500122e-001</right_val></_>
          <_>
            <!-- node 1 -->
            <feature>
              <rects>
                <_>
                  15 15 5 4 -1.</_>
                <_>
                  15 17 5 2 2.</_></rects>
              <tilted>0</tilted></feature>
            <threshold>5.4841239034431055e-005</threshold>
            <left_val>3.1449070572853088e-001</left_val>
            <right_val>-8.2316672801971436e-001</right_val></_></_>
        <_>
          <!-- tree 4 -->
          <_>
            <!-- root node -->
            <feature>
              <rects>
                <_>
                  4 8 9 6 -1.</_>
                <_>
                  7 8 3 6 3.</_></rects>
              <tilted>0</tilted></feature>
            <threshold>3.4477940062060952e-004</threshold>
            <left_node>1</left_node>
            <right_val>-8.2628667354583740e-001</right_val></_>
          <_>
            <!-- node 1 -->
            <feature>
              <rects>
                <_>
                  6 5 11 16 -1.</_>
                <_>
                  6 9 11 8 2.</_></rects>
              <tilted>0</tilted></feature>
            <threshold>2.8695480898022652e-002</threshold>
            <left_val>-6.5297627449035645e-001</left_val>
            <right_val>3.2298719882965088e-001</right_val></_></_>
        <_>
          <!-- tree 5 -->
          <_>
            <!-- root node -->
            <feature>
              <rects>
                <_>
                  0 2 3 17 -1.</_>
                <_>
                  1 2 1 17 3.</_></rects>
              <tilted>0</tilted></feature>
            <threshold>-1.9001480191946030e-002</threshold>
            <left_val>7.1253740787506104e-001</left_val>
            <right_node>1</right_node></_>
          <_>
            <!-- node 1 -->
            <feature>
              <rects>
                <_>
                  1 2 4 14 -1.</_>
                <_>
                  2 2 2 14 2.</_></rects>
              <tilted>0</tilted></feature>
            <threshold>-1.9092889502644539e-002</threshold>
            <left_val>3.9388349652290344e-001</left_val>
            <right_val>-4.1865199804306030e-001</right_val></_></_>
        <_>
          <!-- tree 6 -->
          <_>
            <!-- root node -->
            <feature>
              <rects>
                <_>
                  6 6 12 9 -1.</_>
                <_>
                  6 9 12 3 3.</_></rects>
              <tilted>0</tilted></feature>
            <threshold>7.8514609485864639e-003</threshold>
            <left_node>1</left_node>
            <right_val>-7.9344409704208374e-001</right_val></_>
          <_>
            <!-- node 1 -->
            <feature>
              <rects>
                <_>
                  0 5 24 2 -1.</_>
                <_>
                  6 5 12 2 2.</_></rects>
              <tilted>0</tilted></feature>
            <threshold>9.0452179312705994e-002</threshold>
            <left_val>3.0220729112625122e-001</left_val>
            <right_val>-7.3849761486053467e-001</right_val></_></_></trees>
      <stage_threshold>-1.7598470449447632e+000</stage_threshold>
      <parent>15</parent>
      <next>-1</next></_>
    <_>
      <!-- stage 17 -->
      <trees>
        <_>
          <!-- tree 0 -->
          <_>
            <!-- root node -->
            <feature>
              <rects>
                <_>
                  3 0 20 24 -1.</_>
                <_>
                  8 0 10 24 2.</_></rects>
              <tilted>0</tilted></feature>
            <threshold>3.6861950159072876e-001</threshold>
            <left_node>1</left_node>
            <right_val>-7.6969367265701294e-001</right_val></_>
          <_>
            <!-- node 1 -->
            <feature>
              <rects>
                <_>
                  1 16 20 2 -1.</_>
                <_>
                  6 16 10 2 2.</_></rects>
              <tilted>0</tilted></feature>
            <threshold>-1.7968809697777033e-003</threshold>
            <left_val>-7.2101372480392456e-001</left_val>
            <right_val>6.5039938688278198e-001</right_val></_></_>
        <_>
          <!-- tree 1 -->
          <_>
            <!-- root node -->
            <feature>
              <rects>
                <_>
                  10 18 12 5 -1.</_>
                <_>
                  14 18 4 5 3.</_></rects>
              <tilted>0</tilted></feature>
            <threshold>5.9459008276462555e-002</threshold>
            <left_node>1</left_node>
            <right_val>7.5186568498611450e-001</right_val></_>
          <_>
            <!-- node 1 -->
            <feature>
              <rects>
                <_>
                  5 5 16 8 -1.</_>
                <_>
                  5 5 8 4 2.</_>
                <_>
                  13 9 8 4 2.</_></rects>
              <tilted>0</tilted></feature>
            <threshold>4.5907039195299149e-002</threshold>
            <left_val>-5.4388397932052612e-001</left_val>
            <right_val>6.5001738071441650e-001</right_val></_></_>
        <_>
          <!-- tree 2 -->
          <_>
            <!-- root node -->
            <feature>
              <rects>
                <_>
                  4 7 12 14 -1.</_>
                <_>
                  4 14 12 7 2.</_></rects>
              <tilted>0</tilted></feature>
            <threshold>-2.0241539925336838e-002</threshold>
            <left_node>1</left_node>
            <right_val>-5.1459038257598877e-001</right_val></_>
          <_>
            <!-- node 1 -->
            <feature>
              <rects>
                <_>
                  6 13 15 1 -1.</_>
                <_>
                  11 13 5 1 3.</_></rects>
              <tilted>0</tilted></feature>
            <threshold>-1.5886100009083748e-003</threshold>
            <left_val>-7.1376299858093262e-001</left_val>
            <right_val>5.1190531253814697e-001</right_val></_></_>
        <_>
          <!-- tree 3 -->
          <_>
            <!-- root node -->
            <feature>
              <rects>
                <_>
                  12 10 6 1 -1.</_>
                <_>
                  14 12 2 1 3.</_></rects>
              <tilted>1</tilted></feature>
            <threshold>6.1821937561035156e-004</threshold>
            <left_node>1</left_node>
            <right_val>-7.0658200979232788e-001</right_val></_>
          <_>
            <!-- node 1 -->
            <feature>
              <rects>
                <_>
                  9 8 6 10 -1.</_>
                <_>
                  9 8 3 5 2.</_>
                <_>
                  12 13 3 5 2.</_></rects>
              <tilted>0</tilted></feature>
            <threshold>1.4192610047757626e-002</threshold>
            <left_val>3.3182579278945923e-001</left_val>
            <right_val>-8.4306240081787109e-001</right_val></_></_>
        <_>
          <!-- tree 4 -->
          <_>
            <!-- root node -->
            <feature>
              <rects>
                <_>
                  8 7 8 4 -1.</_>
                <_>
                  8 8 8 2 2.</_></rects>
              <tilted>0</tilted></feature>
            <threshold>-2.7086620684713125e-003</threshold>
            <left_node>1</left_node>
            <right_val>-7.0215070247650146e-001</right_val></_>
          <_>
            <!-- node 1 -->
            <feature>
              <rects>
                <_>
                  18 23 6 1 -1.</_>
                <_>
                  21 23 3 1 2.</_></rects>
              <tilted>0</tilted></feature>
            <threshold>-8.9062942424789071e-004</threshold>
            <left_val>-2.1140620112419128e-001</left_val>
            <right_val>5.5722922086715698e-001</right_val></_></_>
        <_>
          <!-- tree 5 -->
          <_>
            <!-- root node -->
            <feature>
              <rects>
                <_>
                  0 3 4 12 -1.</_>
                <_>
                  0 3 2 6 2.</_>
                <_>
                  2 9 2 6 2.</_></rects>
              <tilted>0</tilted></feature>
            <threshold>2.0905550569295883e-002</threshold>
            <left_node>1</left_node>
            <right_val>7.8310990333557129e-001</right_val></_>
          <_>
            <!-- node 1 -->
            <feature>
              <rects>
                <_>
                  3 0 18 2 -1.</_>
                <_>
                  3 0 9 1 2.</_>
                <_>
                  12 1 9 1 2.</_></rects>
              <tilted>0</tilted></feature>
            <threshold>-8.7047535926103592e-003</threshold>
            <left_val>5.5524307489395142e-001</left_val>
            <right_val>-3.6885121464729309e-001</right_val></_></_></trees>
      <stage_threshold>-1.6949139833450317e+000</stage_threshold>
      <parent>16</parent>
      <next>-1</next></_>
    <_>
      <!-- stage 18 -->
      <trees>
        <_>
          <!-- tree 0 -->
          <_>
            <!-- root node -->
            <feature>
              <rects>
                <_>
                  11 0 2 24 -1.</_>
                <_>
                  11 6 2 12 2.</_></rects>
              <tilted>0</tilted></feature>
            <threshold>1.2353089638054371e-002</threshold>
            <left_node>1</left_node>
            <right_val>4.2144641280174255e-001</right_val></_>
          <_>
            <!-- node 1 -->
            <feature>
              <rects>
                <_>
                  2 19 3 2 -1.</_>
                <_>
                  2 19 3 1 2.</_></rects>
              <tilted>1</tilted></feature>
            <threshold>-4.4643310829997063e-003</threshold>
            <left_val>6.7299497127532959e-001</left_val>
            <right_val>-7.9524058103561401e-001</right_val></_></_>
        <_>
          <!-- tree 1 -->
          <_>
            <!-- root node -->
            <feature>
              <rects>
                <_>
                  18 0 6 9 -1.</_>
                <_>
                  15 3 6 3 3.</_></rects>
              <tilted>1</tilted></feature>
            <threshold>-3.5525009036064148e-002</threshold>
            <left_val>-7.2239482402801514e-001</left_val>
            <right_node>1</right_node></_>
          <_>
            <!-- node 1 -->
            <feature>
              <rects>
                <_>
                  4 5 18 16 -1.</_>
                <_>
                  4 9 18 8 2.</_></rects>
              <tilted>0</tilted></feature>
            <threshold>8.7448552250862122e-002</threshold>
            <left_val>-5.1421970129013062e-001</left_val>
            <right_val>4.3782588839530945e-001</right_val></_></_>
        <_>
          <!-- tree 2 -->
          <_>
            <!-- root node -->
            <feature>
              <rects>
                <_>
                  2 17 22 3 -1.</_>
                <_>
                  2 18 22 1 3.</_></rects>
              <tilted>0</tilted></feature>
            <threshold>-3.2561879605054855e-002</threshold>
            <left_val>-8.2100838422775269e-001</left_val>
            <right_node>1</right_node></_>
          <_>
            <!-- node 1 -->
            <feature>
              <rects>
                <_>
                  10 12 4 6 -1.</_>
                <_>
                  10 14 4 2 3.</_></rects>
              <tilted>0</tilted></feature>
            <threshold>-1.2638740241527557e-002</threshold>
            <left_val>5.3371280431747437e-001</left_val>
            <right_val>-3.6619418859481812e-001</right_val></_></_>
        <_>
          <!-- tree 3 -->
          <_>
            <!-- root node -->
            <feature>
              <rects>
                <_>
                  20 4 4 3 -1.</_>
                <_>
                  21 4 2 3 2.</_></rects>
              <tilted>0</tilted></feature>
            <threshold>-5.7813678868114948e-003</threshold>
            <left_val>5.8378428220748901e-001</left_val>
            <right_node>1</right_node></_>
          <_>
            <!-- node 1 -->
            <feature>
              <rects>
                <_>
                  2 22 18 2 -1.</_>
                <_>
                  2 22 9 1 2.</_>
                <_>
                  11 23 9 1 2.</_></rects>
              <tilted>0</tilted></feature>
            <threshold>-8.5091292858123779e-003</threshold>
            <left_val>5.3789162635803223e-001</left_val>
            <right_val>-3.9630129933357239e-001</right_val></_></_>
        <_>
          <!-- tree 4 -->
          <_>
            <!-- root node -->
            <feature>
              <rects>
                <_>
                  0 8 24 6 -1.</_>
                <_>
                  0 10 24 2 3.</_></rects>
              <tilted>0</tilted></feature>
            <threshold>3.9824120700359344e-002</threshold>
            <left_node>1</left_node>
            <right_val>-7.8204798698425293e-001</right_val></_>
          <_>
            <!-- node 1 -->
            <feature>
              <rects>
                <_>
                  1 4 21 8 -1.</_>
                <_>
                  1 6 21 4 2.</_></rects>
              <tilted>0</tilted></feature>
            <threshold>-5.4799369536340237e-003</threshold>
            <left_val>3.4622699022293091e-001</left_val>
            <right_val>-7.1028548479080200e-001</right_val></_></_>
        <_>
          <!-- tree 5 -->
          <_>
            <!-- root node -->
            <feature>
              <rects>
                <_>
                  2 8 4 16 -1.</_>
                <_>
                  2 8 2 8 2.</_>
                <_>
                  4 16 2 8 2.</_></rects>
              <tilted>0</tilted></feature>
            <threshold>-8.0240005627274513e-003</threshold>
            <left_node>1</left_node>
            <right_val>-3.8148018717765808e-001</right_val></_>
          <_>
            <!-- node 1 -->
            <feature>
              <rects>
                <_>
                  16 12 2 4 -1.</_>
                <_>
                  17 12 1 4 2.</_></rects>
              <tilted>0</tilted></feature>
            <threshold>1.1329660192131996e-003</threshold>
            <left_val>5.4572272300720215e-001</left_val>
            <right_val>-7.5486320257186890e-001</right_val></_></_>
        <_>
          <!-- tree 6 -->
          <_>
            <!-- root node -->
            <feature>
              <rects>
                <_>
                  5 15 2 3 -1.</_>
                <_>
                  5 16 2 1 3.</_></rects>
              <tilted>0</tilted></feature>
            <threshold>1.3944569509476423e-003</threshold>
            <left_node>1</left_node>
            <right_val>-8.6466270685195923e-001</right_val></_>
          <_>
            <!-- node 1 -->
            <feature>
              <rects>
                <_>
                  0 10 20 10 -1.</_>
                <_>
                  10 10 10 10 2.</_></rects>
              <tilted>0</tilted></feature>
            <threshold>1.7231260240077972e-001</threshold>
            <left_val>3.1636819243431091e-001</left_val>
            <right_val>-5.9440517425537109e-001</right_val></_></_></trees>
      <stage_threshold>-2.0719649791717529e+000</stage_threshold>
      <parent>17</parent>
      <next>-1</next></_>
    <_>
      <!-- stage 19 -->
      <trees>
        <_>
          <!-- tree 0 -->
          <_>
            <!-- root node -->
            <feature>
              <rects>
                <_>
                  11 5 2 16 -1.</_>
                <_>
                  11 13 2 8 2.</_></rects>
              <tilted>0</tilted></feature>
            <threshold>-2.3263139650225639e-002</threshold>
            <left_node>1</left_node>
            <right_val>-5.7124727964401245e-001</right_val></_>
          <_>
            <!-- node 1 -->
            <feature>
              <rects>
                <_>
                  2 2 18 12 -1.</_>
                <_>
                  8 2 6 12 3.</_></rects>
              <tilted>0</tilted></feature>
            <threshold>1.1863649636507034e-001</threshold>
            <left_val>-5.1438778638839722e-001</left_val>
            <right_val>6.4292597770690918e-001</right_val></_></_>
        <_>
          <!-- tree 1 -->
          <_>
            <!-- root node -->
            <feature>
              <rects>
                <_>
                  20 3 4 6 -1.</_>
                <_>
                  18 5 4 2 3.</_></rects>
              <tilted>1</tilted></feature>
            <threshold>8.8513009250164032e-003</threshold>
            <left_val>-5.3002160787582397e-001</left_val>
            <right_node>1</right_node></_>
          <_>
            <!-- node 1 -->
            <feature>
              <rects>
                <_>
                  2 7 16 11 -1.</_>
                <_>
                  6 7 8 11 2.</_></rects>
              <tilted>0</tilted></feature>
            <threshold>-6.8988738348707557e-004</threshold>
            <left_val>-8.1250017881393433e-001</left_val>
            <right_val>4.8011499643325806e-001</right_val></_></_>
        <_>
          <!-- tree 2 -->
          <_>
            <!-- root node -->
            <feature>
              <rects>
                <_>
                  9 9 3 6 -1.</_>
                <_>
                  10 9 1 6 3.</_></rects>
              <tilted>0</tilted></feature>
            <threshold>-6.0835839249193668e-003</threshold>
            <left_val>5.0087809562683105e-001</left_val>
            <right_node>1</right_node></_>
          <_>
            <!-- node 1 -->
            <feature>
              <rects>
                <_>
                  3 0 17 4 -1.</_>
                <_>
                  3 2 17 2 2.</_></rects>
              <tilted>0</tilted></feature>
            <threshold>4.7792159020900726e-002</threshold>
            <left_val>-5.3583818674087524e-001</left_val>
            <right_val>4.3238058686256409e-001</right_val></_></_>
        <_>
          <!-- tree 3 -->
          <_>
            <!-- root node -->
            <feature>
              <rects>
                <_>
                  15 13 2 3 -1.</_>
                <_>
                  15 13 1 3 2.</_></rects>
              <tilted>1</tilted></feature>
            <threshold>-1.3008490204811096e-003</threshold>
            <left_node>1</left_node>
            <right_val>-5.1472198963165283e-001</right_val></_>
          <_>
            <!-- node 1 -->
            <feature>
              <rects>
                <_>
                  10 12 8 2 -1.</_>
                <_>
                  12 12 4 2 2.</_></rects>
              <tilted>0</tilted></feature>
            <threshold>-2.5606560520827770e-003</threshold>
            <left_val>-7.6485818624496460e-001</left_val>
            <right_val>4.5667588710784912e-001</right_val></_></_>
        <_>
          <!-- tree 4 -->
          <_>
            <!-- root node -->
            <feature>
              <rects>
                <_>
                  5 14 4 2 -1.</_>
                <_>
                  5 15 4 1 2.</_></rects>
              <tilted>0</tilted></feature>
            <threshold>5.1037117373198271e-004</threshold>
            <left_node>1</left_node>
            <right_val>-8.6524379253387451e-001</right_val></_>
          <_>
            <!-- node 1 -->
            <feature>
              <rects>
                <_>
                  4 14 4 3 -1.</_>
                <_>
                  4 15 4 1 3.</_></rects>
              <tilted>0</tilted></feature>
            <threshold>-3.4988350234925747e-003</threshold>
            <left_val>-8.3867597579956055e-001</left_val>
            <right_val>2.2494299709796906e-001</right_val></_></_>
        <_>
          <!-- tree 5 -->
          <_>
            <!-- root node -->
            <feature>
              <rects>
                <_>
                  0 5 2 4 -1.</_>
                <_>
                  1 5 1 4 2.</_></rects>
              <tilted>0</tilted></feature>
            <threshold>-5.9335078112781048e-003</threshold>
            <left_val>7.1382242441177368e-001</left_val>
            <right_node>1</right_node></_>
          <_>
            <!-- node 1 -->
            <feature>
              <rects>
                <_>
                  9 6 6 14 -1.</_>
                <_>
                  12 6 3 14 2.</_></rects>
              <tilted>0</tilted></feature>
            <threshold>-1.6481800004839897e-002</threshold>
            <left_val>5.6809878349304199e-001</left_val>
            <right_val>-4.2961499094963074e-001</right_val></_></_>
        <_>
          <!-- tree 6 -->
          <_>
            <!-- root node -->
            <feature>
              <rects>
                <_>
                  16 15 5 2 -1.</_>
                <_>
                  16 16 5 1 2.</_></rects>
              <tilted>0</tilted></feature>
            <threshold>1.1200139852007851e-005</threshold>
            <left_node>1</left_node>
            <right_val>-6.0229921340942383e-001</right_val></_>
          <_>
            <!-- node 1 -->
            <feature>
              <rects>
                <_>
                  8 5 4 2 -1.</_>
                <_>
                  8 5 2 2 2.</_></rects>
              <tilted>1</tilted></feature>
            <threshold>-7.6175560243427753e-003</threshold>
            <left_val>-7.7420622110366821e-001</left_val>
            <right_val>3.6708858609199524e-001</right_val></_></_>
        <_>
          <!-- tree 7 -->
          <_>
            <!-- root node -->
            <feature>
              <rects>
                <_>
                  7 2 9 5 -1.</_>
                <_>
                  10 2 3 5 3.</_></rects>
              <tilted>0</tilted></feature>
            <threshold>1.0316179832443595e-003</threshold>
            <left_val>-7.0420527458190918e-001</left_val>
            <right_node>1</right_node></_>
          <_>
            <!-- node 1 -->
            <feature>
              <rects>
                <_>
                  20 3 4 11 -1.</_>
                <_>
                  21 3 2 11 2.</_></rects>
              <tilted>0</tilted></feature>
            <threshold>-9.7827911376953125e-003</threshold>
            <left_val>5.8742868900299072e-001</left_val>
